%YAML:1.0
---
svm: !!opencv-object-detector-hog
   winSize: [ 320, 240 ]
   blockSize: [ 16, 16 ]
   blockStride: [ 8, 8 ]
   cellSize: [ 8, 8 ]
   nbins: 9
   derivAperture: 1
   winSigma: 4.
   histogramNormType: 0
   L2HysThreshold: 2.0000000000000001e-01
   gammaCorrection: 1
   nlevels: 64
   signedGradient: 0
   SVMDetector: [ 2.91003194e-03, 1.83314481e-03, 4.59622499e-03,
       3.90539481e-03, 2.80505701e-05, 1.56838947e-03, 4.94961534e-03,
       2.45663058e-03, 2.92957481e-03, 2.42934446e-03, 9.66638618e-04,
       4.91903536e-03, 3.78913595e-03, -8.26976541e-03, 1.27775315e-03,
       4.57120826e-03, 2.92542297e-03, 3.12259328e-03, -4.97897435e-03,
       8.10197263e-04, 1.64554710e-03, 1.95615157e-03, 1.54503470e-03,
       2.07408611e-03, 4.55724867e-03, 1.67965237e-03, -5.55213168e-03,
       -1.40536390e-03, -1.52033335e-03, -7.50114443e-04, 8.40442663e-04,
       -1.75267924e-03, 4.64809680e-04, 1.07289082e-03, -5.45990712e-04,
       -2.63983663e-03, 2.14895816e-03, 1.36240362e-03, 4.91560251e-03,
       2.67881248e-03, -6.42385660e-03, 7.51843269e-04, 2.14929669e-03,
       1.76383858e-03, 2.89215613e-03, 2.78714206e-03, 2.18340685e-03,
       4.59083542e-03, 1.65369443e-03, -9.92533751e-03, 1.36008754e-03,
       3.48922028e-03, 1.71100860e-03, 3.45679140e-03, 7.58973474e-04,
       -3.67487606e-04, 3.29064578e-03, 1.71905966e-03, 1.43061334e-03,
       -2.67854688e-04, -6.49717171e-04, -7.01326586e-04, 3.71897360e-04,
       1.30208937e-04, -4.83490789e-04, 3.11707612e-03, -5.25964715e-04,
       -1.92462374e-03, 6.19720842e-04, 2.22642696e-03, 3.04900110e-04,
       9.59509576e-04, 3.25254374e-03, 2.03357195e-03, 3.70628294e-03,
       1.61108363e-03, -1.14177298e-02, 9.87868058e-04, 4.57886793e-03,
       2.39418866e-03, 4.00969665e-03, 4.54293471e-03, 2.20323401e-03,
       3.94891016e-03, 3.45416367e-03, -1.27142072e-02, 1.29161472e-03,
       4.85761976e-03, 3.00206058e-03, 5.01506682e-03, 1.00811198e-03,
       -1.37668685e-04, 1.58651243e-03, 5.96074038e-04, -7.64906799e-05,
       3.17917089e-04, 2.98180548e-03, 1.22232025e-03, 1.96836796e-03,
       9.59040306e-04, -7.90933962e-04, 2.22565164e-03, 3.59642785e-03,
       -4.64409619e-04, -7.54744760e-05, 1.50758147e-04, 1.22014794e-03,
       2.26596999e-03, 4.27890616e-03, 1.39613391e-03, 3.29390401e-03,
       3.23267584e-03, -1.19425356e-02, 1.54024025e-03, 2.06683134e-03,
       1.65430829e-03, 4.03262256e-03, 4.65730019e-03, 1.28453830e-03,
       4.10470925e-03, 2.67008319e-03, -8.98335502e-03, 2.57241353e-03,
       3.94506706e-03, 2.53181905e-03, 4.65854723e-03, -5.16626205e-05,
       -6.62109116e-04, 2.47072522e-03, 1.85858505e-03, -1.53955887e-03,
       -1.70440966e-04, -2.16971850e-03, -2.33041646e-04, 1.79536955e-03,
       1.00917276e-03, -1.08059926e-03, 1.68078917e-03, 1.27771124e-03,
       -1.09316409e-03, -2.16354729e-05, -2.65059440e-04, 1.32175209e-03,
       3.33295926e-03, 2.90617067e-03, 1.19688676e-03, 3.73571692e-03,
       2.69607548e-03, -6.54425984e-03, 1.96002540e-03, 3.39567568e-03,
       2.70245434e-03, 3.62547906e-03, 1.77858479e-03, 2.51195580e-03,
       6.31735055e-03, 3.36186984e-03, -3.03050946e-03, 2.18409812e-03,
       6.21955004e-03, 3.41005740e-03, 2.88554141e-03, -9.05508699e-04,
       -6.68207707e-04, 1.86785322e-03, 2.27158656e-03, -5.08491136e-03,
       -7.67432328e-04, -1.32872246e-03, 1.52472709e-03, 1.48552179e-03,
       -2.24673166e-03, 3.11215612e-04, 2.28153844e-03, 1.80665709e-04,
       -4.56968974e-03, -1.57220569e-03, 3.03648924e-03, 1.91795791e-03,
       -9.02289641e-04, 1.16151199e-03, 2.34362273e-03, 5.95586281e-03,
       3.00035439e-03, -2.59622559e-03, 1.99154788e-03, 4.93876543e-03,
       2.67941575e-03, 2.01585330e-03, 1.74741622e-03, 2.03685812e-03,
       4.73503489e-03, 3.01149487e-03, -6.30255695e-03, 2.05194438e-03,
       3.00120423e-03, 1.84462138e-03, 2.71489820e-03, -2.32038624e-03,
       2.46366556e-03, 3.03795678e-03, 4.19808144e-04, -2.25317897e-03,
       -2.04319891e-04, 3.39212362e-03, 8.39028915e-04, -2.60133599e-03,
       -2.97456700e-03, 5.17426350e-04, 3.29966773e-03, 4.20722878e-04,
       -1.53789029e-03, 7.95177621e-05, -1.43694016e-03, -7.31898646e-04,
       -1.85921323e-03, 2.69475742e-03, 2.86643859e-03, 5.18023968e-03,
       2.26742635e-03, -5.94652724e-03, 1.54713844e-03, 2.83617503e-03,
       1.51431072e-03, 2.81164981e-03, 2.23993766e-03, 1.61849358e-03,
       3.39133176e-03, 1.99921988e-03, -3.06715630e-03, 1.80001941e-03,
       4.57504019e-03, 2.49711610e-03, 2.46936805e-03, -1.73510250e-03,
       5.42344991e-04, 2.80684023e-03, 1.03196697e-04, -7.44103745e-04,
       -1.04280782e-03, -1.22694985e-03, -6.50342146e-04,
       -1.03570905e-03, -1.96997565e-03, -1.38343126e-03,
       -1.24703941e-03, -3.97751312e-04, -1.04583253e-03, 1.72473228e-04,
       2.75538303e-03, 1.32365408e-03, -1.75836449e-03, 1.94322050e-03,
       5.23474941e-04, 2.09963461e-03, 2.14800006e-03, -3.62243084e-03,
       1.42105250e-03, 4.53423522e-03, 2.29566917e-03, 2.23465217e-03,
       2.45753257e-03, 1.16355979e-04, 2.25296756e-03, 2.28392938e-03,
       -8.78559519e-03, 1.62982801e-03, 5.89146279e-03, 1.97581481e-03,
       3.23081459e-03, -1.16678863e-03, -1.66640594e-03, 4.54026449e-05,
       2.81957444e-04, 1.84132031e-03, 4.58113675e-04, 3.32247489e-03,
       9.45987238e-04, -8.08081415e-04, -1.63542409e-03, -3.67362658e-03,
       -1.40088971e-03, 9.46380023e-05, 2.52440805e-03, 2.86633789e-04,
       4.02878597e-03, -6.34426600e-04, -9.01771535e-04, 1.47732371e-03,
       -2.07417743e-05, 2.24202150e-03, 2.28012819e-03, -1.01102246e-02,
       1.54338533e-03, 4.47127968e-03, 1.04698888e-03, 1.84931443e-03,
       1.63951004e-03, 9.78113851e-04, 3.84942675e-03, 3.48445610e-03,
       -8.62728525e-03, 1.72666681e-03, 4.25480306e-03, 1.19481026e-03,
       2.12679431e-03, -2.61271768e-03, -2.10248120e-03, -1.07880414e-03,
       1.28820143e-03, 2.31862115e-03, 9.08090791e-04, 2.44625704e-03,
       -8.37382511e-04, -2.41350802e-03, -1.58607878e-03,
       -1.34366332e-04, 1.45353493e-03, 2.46049580e-03, -5.30442689e-04,
       -7.55474553e-04, 1.40868942e-03, -8.17721768e-04, -2.07454828e-03,
       2.17680237e-03, 1.34391477e-03, 3.22183361e-03, 2.52547464e-03,
       -6.63655018e-03, 1.52499636e-03, 3.51712247e-03, 1.20987510e-03,
       2.05967855e-03, 2.50019482e-03, 2.21967394e-03, 4.13131993e-03,
       2.61988956e-03, -5.85818756e-03, 1.79906876e-03, 4.25880775e-03,
       1.62084994e-03, 1.30244624e-03, -7.91736180e-04, 1.69688385e-04,
       1.98387163e-04, 3.96604766e-04, -1.17715308e-03, -1.39601401e-03,
       1.30311563e-03, -1.03266980e-03, -1.96833606e-03, -7.29174353e-05,
       2.72062898e-04, -7.61018600e-04, 4.57332353e-04, 1.22329337e-03,
       -1.13425136e-03, 1.83960889e-04, -9.33800649e-04, -1.56096555e-03,
       2.00319546e-03, 1.94179208e-03, 4.91846446e-03, 2.71637086e-03,
       -5.69651742e-03, 1.11419137e-03, 4.22538025e-03, 1.61202939e-03,
       1.08457310e-03, 9.99296317e-04, 7.81642098e-04, 1.92882156e-03,
       2.18302687e-03, -9.93577205e-03, 1.82182237e-03, 4.05982183e-03,
       2.01763306e-03, 1.02244818e-03, 5.20810485e-04, 5.34075021e-04,
       1.91234052e-03, 1.33132865e-03, 7.86910416e-04, -1.23714388e-03,
       4.22736426e-04, -4.20167024e-04, -6.98832388e-04, 4.48837382e-04,
       -1.69007597e-03, -2.52883625e-03, -1.32494897e-03,
       -6.31467265e-04, -3.91524780e-04, 1.51905650e-03, 1.40513643e-03,
       1.56917016e-03, 6.56807912e-04, 9.13936470e-04, 2.05873325e-03,
       2.90944288e-03, -8.49120039e-03, 2.52788956e-03, 3.08430917e-03,
       1.36199431e-03, 1.04380504e-03, 6.24295673e-04, 2.11544195e-03,
       5.91539871e-03, 3.31045897e-03, -6.25307998e-03, 2.17976398e-03,
       3.45241046e-03, 1.38046965e-03, 1.75299204e-03, 2.39144370e-04,
       -1.23376073e-03, -2.23351875e-03, 2.40736728e-04, 4.11377659e-05,
       1.28124107e-03, 5.73723228e-04, 2.02978641e-04, 4.67747712e-04,
       -1.83180603e-03, -8.73833604e-04, 1.24472729e-03, 1.56517222e-03,
       1.94768407e-04, 1.62546567e-04, -2.35273852e-03, -3.21910367e-04,
       -7.39188632e-04, 1.85381924e-03, 2.04827287e-03, 5.23007009e-03,
       2.55288533e-03, -6.08584564e-03, 1.52384455e-03, 3.98849230e-03,
       1.94501260e-03, 2.84297206e-03, 4.02273284e-03, 2.67576403e-03,
       5.44077810e-03, 3.26713966e-03, -7.91284349e-03, 1.70073574e-04,
       4.13349085e-03, 1.87848613e-03, 3.31613724e-03, -2.87443120e-03,
       -1.19992800e-03, -6.74834242e-04, 1.38539704e-03, 2.37337430e-04,
       -1.12859567e-03, -3.88283253e-04, 1.15323125e-03, -1.97617430e-03,
       -7.04387261e-04, -8.70432355e-04, -1.44950137e-03, 3.52066057e-03,
       -2.59562192e-04, -3.54021369e-03, -3.15131067e-04, 8.03496980e-04,
       -5.00435235e-05, 3.36472364e-03, 2.44534342e-03, 4.90091322e-03,
       2.74314056e-03, -6.13687094e-03, -1.13014015e-04, 4.03929502e-03,
       1.36209372e-03, 2.03615008e-03, 3.03925830e-03, 1.97475217e-03,
       4.59544547e-03, 1.78887090e-03, -9.86916199e-03, 9.17160476e-04,
       3.32377688e-03, 7.14830530e-04, 2.32422817e-03, 1.08395587e-03,
       9.46624670e-04, 1.06304116e-03, 2.65155756e-03, 5.02125418e-04,
       -3.89130227e-03, 1.05860387e-03, 6.16419478e-04, 8.00879032e-04,
       9.92862624e-04, 8.97622143e-04, 1.19969877e-03, -2.17188266e-03,
       -1.36820367e-04, -1.45815522e-03, 3.14891040e-05, -7.89587502e-04,
       -6.64241961e-05, 2.88308901e-03, 1.36124284e-03, 3.55597166e-03,
       2.20040581e-03, -6.22646650e-03, 2.01185700e-03, 2.63935281e-03,
       1.85141340e-04, 2.81064282e-03, 4.09487495e-03, 1.55162031e-03,
       3.48712201e-03, 2.36599520e-03, -7.34454859e-03, 2.52302038e-03,
       3.32661346e-03, 6.41463790e-04, 3.95265222e-03, 9.50344896e-04,
       2.47121847e-04, -9.60579291e-06, -1.11078878e-03, 8.15806619e-04,
       5.30934660e-04, -1.67363323e-03, -1.64985866e-03, 3.72909795e-04,
       2.20521237e-03, 6.68050256e-04, 2.92008663e-05, 1.03160052e-03,
       -7.30743224e-04, 1.50808960e-03, -1.24262751e-03, -1.66528183e-03,
       1.52337458e-03, 3.18670506e-03, 1.52398658e-03, 3.05106537e-03,
       1.21713721e-03, -8.72527156e-03, 2.64736288e-03, 3.55468644e-03,
       8.51472898e-04, 2.69693090e-03, 2.34232517e-03, 2.36277352e-03,
       4.83414391e-03, 2.32557929e-03, -3.71481688e-03, 2.73453561e-03,
       4.47664410e-03, 1.34952401e-03, 2.22233543e-03, -2.15347696e-04,
       3.07742157e-04, -1.73852150e-03, -5.38861845e-04, -2.59902212e-04,
       2.26750621e-03, 1.48177799e-03, -1.10624149e-03, -1.06262532e-03,
       -1.48582412e-03, 1.08383514e-03, -5.48153876e-05, -6.50243426e-04,
       1.30655838e-03, 2.45632161e-03, 8.40677298e-04, -2.24762340e-03,
       -2.92952941e-03, 1.56362774e-03, 2.59063812e-03, 5.39147947e-03,
       2.52082967e-03, -2.54317303e-03, 1.77910004e-03, 2.96728848e-03,
       9.88209038e-04, 1.56799366e-03, 2.50013266e-03, 2.51224008e-03,
       5.54728461e-03, 2.53673503e-03, -5.27602108e-03, 1.74060580e-03,
       3.42889200e-03, 6.66844775e-04, 1.96549040e-03, -5.45257179e-04,
       1.74073025e-03, 2.82973400e-03, -4.28555708e-04, 1.15814421e-03,
       -9.36535434e-05, -6.14688557e-04, -2.24460498e-03,
       -2.29131267e-03, -9.05983790e-04, 8.45746035e-05, 2.02208175e-03,
       -1.71705021e-03, -1.13605859e-03, -1.64296711e-03, 1.17810164e-03,
       -1.75082765e-03, -1.78585190e-03, 3.05324839e-03, 1.81398052e-03,
       4.40531597e-03, 2.91371765e-03, -1.65185530e-03, 1.48281793e-03,
       3.51461396e-03, 7.31644395e-04, 2.66076392e-03, 2.86878645e-03,
       1.02892052e-03, 3.53698991e-03, 3.20563442e-03, -4.41162847e-03,
       4.90816368e-04, 4.23993217e-03, 1.27829891e-03, 2.93654413e-03,
       -1.83138449e-03, -4.22608689e-04, 1.37261100e-04, 5.92887460e-04,
       1.43245840e-03, -1.36490096e-03, 7.70706683e-05, -1.11204421e-03,
       -1.45014748e-03, -1.07660785e-03, -3.97104915e-04, 1.02323317e-03,
       1.31964206e-03, -1.50863407e-03, -3.16812377e-03, 1.80820847e-04,
       -4.62703872e-04, -1.41613139e-03, 3.00170528e-03, 1.16755569e-03,
       3.80665832e-03, 2.62833457e-03, -9.24680755e-03, 1.90595398e-04,
       4.19629412e-03, 1.81306491e-03, 2.73857173e-03, 3.60854133e-03,
       1.84668298e-03, 3.51280207e-03, 2.24116328e-03, -3.71146970e-03,
       8.55835213e-04, 7.03615136e-03, 2.71506305e-03, 2.88869068e-03,
       -9.33619973e-04, 9.06216388e-04, 2.86229118e-03, -4.88234189e-04,
       -2.46848003e-03, -2.60632928e-03, -2.05984965e-04,
       -1.23289018e-03, -1.95702258e-03, -7.58498267e-04, 3.18714621e-04,
       2.19692825e-03, 6.18299528e-04, 1.78020599e-03, -9.09007736e-04,
       3.47591168e-03, 2.03425006e-04, -1.19439419e-03, 3.73748061e-03,
       2.11738795e-03, 2.90290569e-03, 2.23635952e-03, -6.67732535e-03,
       2.57506908e-05, 6.31186645e-03, 2.46708188e-03, 2.99170986e-03,
       4.99979826e-03, 2.26914650e-03, 5.12914825e-03, 1.94672123e-03,
       -5.48013533e-03, 1.49734016e-03, 5.94216492e-03, 1.90796645e-03,
       4.61165886e-03, -1.52285269e-03, 1.87992453e-04, 7.14222435e-04,
       7.54243752e-04, -6.46340603e-04, -2.14828807e-03, 2.21009064e-03,
       1.29179869e-04, -1.35330460e-03, -1.18500378e-03, -1.49953601e-04,
       2.25001946e-03, 1.35220267e-04, -2.81271990e-04, -1.28741004e-03,
       2.20848294e-03, -6.02224085e-04, -6.88301923e-04, 4.30942001e-03,
       1.44980126e-03, 4.29891283e-03, 1.42561342e-03, -2.36712513e-03,
       2.69033900e-03, 4.49643424e-03, 1.24303717e-03, 3.86843062e-03,
       4.07892605e-03, 6.04686618e-04, 2.93506961e-03, 8.69131996e-04,
       -5.91733353e-03, 4.24327329e-03, 5.50512830e-03, 1.93411822e-03,
       4.38046176e-03, -1.58881722e-03, -7.24277284e-04, -2.39834146e-04,
       -4.05244908e-04, 6.38789905e-04, 1.29722047e-03, 2.91033182e-03,
       -9.19019105e-04, -2.07939558e-03, -1.79515081e-03,
       -1.26010319e-03, -2.00519687e-03, -5.93722565e-04,
       -2.25146650e-03, 2.09002360e-03, 1.99005706e-03, -8.70675955e-04,
       -1.55202602e-03, 3.15314997e-03, 1.59764488e-04, 1.95885962e-03,
       5.42696973e-04, -9.08675604e-03, 3.38711659e-03, 4.30199457e-03,
       1.39152154e-03, 3.90887680e-03, 3.20313196e-03, 5.26862452e-04,
       3.17059038e-03, 1.21012283e-03, -6.88124774e-03, 2.12752237e-03,
       3.68550583e-03, 1.26229820e-03, 4.31783637e-03, -2.14647129e-03,
       -1.70889776e-03, -1.23503071e-03, -1.77545054e-03,
       -4.98030742e-04, 1.08816579e-03, 1.02988689e-03, -1.20835810e-03,
       -1.27520924e-03, -3.39732913e-04, -1.65933010e-03,
       -8.75781698e-04, -1.16460421e-03, 4.55132453e-03, 8.48109485e-04,
       2.32964079e-03, -3.43442262e-05, 1.03097979e-03, 3.61071015e-03,
       1.16196042e-03, 3.56830354e-03, 5.94421872e-04, -6.51211711e-03,
       7.85029319e-04, 2.89613940e-03, 6.73711882e-04, 3.80123546e-03,
       5.09462925e-03, 2.40882137e-03, 4.69942950e-03, 8.96277314e-04,
       -5.51994005e-03, 1.98194943e-03, 6.36240514e-03, 1.70463044e-03,
       4.00176458e-03, -1.69165796e-04, -4.09011293e-04, 8.25057039e-04,
       -1.20563933e-03, 5.05485979e-04, -1.37664936e-03, -8.97167891e-04,
       -1.25167263e-03, -7.94169173e-05, 5.11844119e-04, 2.57418433e-04,
       3.14752758e-03, -3.79036646e-04, -3.63588915e-04, -9.74177266e-04,
       2.52042385e-03, -6.37219928e-04, -6.04585686e-04, 3.24547291e-03,
       2.02418258e-03, 3.47938389e-03, 2.05636816e-03, -7.76645029e-03,
       2.49716942e-03, 6.60835113e-03, 1.98889710e-03, 2.54196860e-03,
       4.83591715e-03, 3.06099583e-03, 6.08264189e-03, 4.04921174e-03,
       -6.77733030e-03, 1.96896354e-03, 7.76478043e-03, 2.88501102e-03,
       4.16544499e-03, -1.30077114e-03, 8.13291044e-05, 1.20304897e-03,
       7.60814117e-04, -2.13383860e-03, 7.49223400e-04, 4.28708084e-03,
       -9.10568808e-04, -2.43383320e-03, 2.69975164e-04, 1.61055126e-03,
       3.60535714e-03, 2.64595612e-03, -4.58690058e-03, 9.97280702e-04,
       5.84186334e-03, 1.19286997e-03, -1.60220327e-04, 3.76621028e-03,
       1.81831268e-03, 3.96078918e-03, 4.27065976e-03, -6.46930700e-03,
       1.06485130e-03, 4.90200007e-03, 2.42905063e-03, 3.29213100e-03,
       3.76216718e-03, 1.56275334e-03, 2.86370702e-03, 2.68411427e-03,
       -7.72228884e-03, 2.65996065e-03, 4.88889776e-03, 2.91350111e-03,
       3.66084534e-03, -4.08606080e-04, -4.63513352e-05, 4.54246678e-04,
       1.99505384e-03, -1.83965196e-03, 1.14197622e-03, 4.81100008e-03,
       1.44364673e-03, -6.43466308e-04, -6.09067101e-05, 1.43501806e-04,
       -4.19903226e-04, 3.76212964e-04, -2.10246420e-03, 1.75231008e-03,
       1.94301398e-03, 2.46150792e-03, 1.09344325e-03, 2.80456641e-03,
       1.11722096e-03, 2.50416179e-03, 2.26830528e-03, -7.54757039e-03,
       2.51352577e-03, 3.56432912e-03, 2.79382686e-03, 3.35460342e-03,
       4.05741390e-03, 1.46886357e-03, 2.65376456e-03, 2.78644892e-03,
       -3.35064437e-03, 3.25765647e-03, 5.96113084e-03, 3.19805625e-03,
       4.66522528e-03, -8.82699911e-04, -3.49604699e-04, -6.85745035e-04,
       6.41620078e-04, -2.59080250e-03, 1.34030404e-03, -1.75232650e-04,
       1.32150529e-03, 4.42309174e-05, -5.71718207e-04, -6.83542108e-04,
       -1.85683125e-03, -4.07814077e-04, -2.16610101e-03, 2.55434867e-03,
       8.81969609e-05, -2.49617035e-04, -1.32037594e-03, 4.89638560e-03,
       2.20297463e-03, 2.92754546e-03, 2.75056693e-03, -5.80925727e-03,
       2.69422890e-03, 5.12408558e-03, 2.39463709e-03, 5.01309521e-03,
       4.30637132e-03, 2.72771879e-03, 5.50016062e-03, 4.26891027e-03,
       -9.10122320e-03, 2.32693832e-03, 5.69487317e-03, 2.64210929e-03,
       4.69738338e-03, -1.11064105e-03, -9.35696153e-05, -1.51708291e-03,
       1.48244458e-03, -2.12680013e-03, 3.51373665e-03, 1.16956257e-03,
       -5.55228384e-04, -1.57346483e-03, -1.91220269e-03,
       -3.63931147e-04, 9.23619140e-04, 4.82704863e-03, -1.99923082e-03,
       1.60459639e-03, 2.35602749e-03, 4.49295389e-04, -1.60778267e-03,
       2.48283753e-03, 2.27119750e-03, 5.74311521e-03, 4.47377469e-03,
       -6.88497303e-03, 1.86260394e-03, 5.43662347e-03, 2.64087087e-03,
       3.16242897e-03, 2.94351834e-03, 2.99240975e-03, 6.59868680e-03,
       4.22512554e-03, -9.78194829e-03, 8.44500435e-04, 2.66401493e-03,
       2.23810552e-03, 3.38840415e-03, -2.67174677e-03, 2.26291595e-04,
       3.11186165e-03, 4.15409217e-03, 2.03306088e-03, 1.07527093e-03,
       3.49366199e-03, 6.39697770e-04, -2.32725381e-03, -1.12285675e-03,
       1.62470993e-03, 3.71039961e-03, 2.10715504e-03, -3.75465443e-03,
       -1.18008303e-03, -1.01773592e-03, 1.07886677e-03, 6.48761925e-04,
       2.54797307e-03, 2.29130127e-03, 5.50386636e-03, 3.61854513e-03,
       -1.10736778e-02, 1.03890209e-03, 1.11452187e-03, 1.49909756e-03,
       2.43662135e-03, 2.81981309e-03, 2.45402148e-03, 5.33038191e-03,
       3.58743127e-03, 7.60954665e-03, 2.12488626e-03, 3.46750114e-03,
       2.29178183e-03, 2.73632444e-03, -2.60342332e-03, 3.95517767e-04,
       7.10064778e-04, 5.87446149e-04, -5.38562518e-03, -4.12870111e-04,
       -3.75906401e-03, 7.56462978e-05, -9.99070005e-04, -6.37778360e-03,
       1.41791615e-03, 2.25521601e-03, 2.05971301e-03, 7.71891233e-03,
       1.79079326e-03, 3.75968841e-04, 1.49050925e-03, -6.39503542e-03,
       -4.10695514e-03, 1.23802852e-03, 6.85330597e-04, 1.68856338e-03,
       3.30722053e-03, 1.63559976e-03, 1.62096426e-03, 9.60431062e-04,
       -5.28420368e-03, 3.32746247e-04, -7.18940166e-04, -1.95722189e-03,
       7.61820702e-04, 2.85113230e-04, 1.54116758e-04, -1.40732713e-03,
       -6.68428605e-04, -1.04677607e-03, -1.19328604e-03, 4.21080831e-03,
       5.41075692e-03, 2.48044543e-03, 1.53946166e-03, 3.02861881e-04,
       -9.40889760e-04, 3.14325705e-04, -3.42980190e-03, 3.58884386e-03,
       1.05002790e-03, -8.83232045e-04, 7.50921725e-04, -9.72874113e-04,
       -6.17172409e-05, -2.42976632e-04, 8.23332521e-04, 2.86844838e-03,
       7.01782177e-04, -8.95637320e-04, -5.90584998e-04, 1.33370468e-03,
       1.26503047e-03, -4.19318472e-04, -6.25140499e-04, -5.84034773e-04,
       3.48451067e-05, -8.31745972e-04, -8.36622086e-04, 7.05011073e-04,
       -6.19823477e-05, 3.37164709e-03, 4.68190468e-04, 1.77372561e-03,
       -7.02712932e-05, 6.07179827e-05, 2.71328329e-03, 1.87604237e-04,
       -8.68171279e-04, 1.04851485e-03, 9.37102421e-04, -5.26939053e-04,
       1.37182232e-03, 1.71377358e-03, 2.82961689e-03, 1.27272075e-03,
       -2.57028994e-04, 1.05345076e-04, -1.05964695e-03, 7.90532562e-04,
       -1.83510056e-04, 1.90833362e-03, 3.10871779e-04, 1.89762108e-03,
       -5.38518245e-04, -5.60927263e-04, 1.93456028e-04, -6.13630400e-05,
       3.81831895e-03, 5.54425409e-04, -6.77291318e-05, -6.22848602e-05,
       7.23297766e-04, -3.29940522e-04, -9.69092187e-04, 1.61723059e-03,
       2.39126477e-03, 2.71647819e-03, 2.66841933e-04, -2.50356272e-03,
       -6.56147720e-04, 1.21154380e-03, 1.99216348e-03, 1.21024332e-03,
       1.31134188e-03, -3.74403782e-04, 2.55083828e-03, 1.25881599e-03,
       6.34666241e-04, 2.97544058e-04, 2.88572093e-03, 1.61358458e-03,
       1.83697138e-03, 1.46081392e-03, 1.12385751e-04, -1.14734890e-03,
       1.20952807e-03, -1.07537326e-03, 4.41106095e-04, 2.90526659e-03,
       4.68461221e-04, 6.70355686e-04, 5.46118943e-03, 1.81804167e-03,
       3.60626052e-03, -6.00442756e-04, -2.43853265e-03, -9.09539405e-04,
       2.50285026e-03, 4.25859151e-04, 7.74923188e-04, 2.06230860e-03,
       1.05571654e-03, 3.15106008e-03, -9.25065891e-04, -2.58431258e-03,
       2.25839816e-04, 2.61014723e-03, 1.38811849e-03, 2.22873501e-03,
       3.26106581e-03, -3.09527997e-04, -2.32417980e-04, -1.33141439e-04,
       -2.29604729e-03, -4.70342231e-04, 2.47825985e-03, 1.89261965e-03,
       2.44881050e-03, -4.52413879e-05, -9.30869544e-04, 1.25305611e-03,
       -1.12832910e-04, -1.95331941e-03, 5.73046214e-04, 2.21283897e-03,
       -6.89895183e-04, -4.62817989e-04, -6.23516535e-05, 1.94691203e-03,
       3.32082598e-03, -7.98653346e-04, 8.79914442e-05, 1.23291498e-03,
       1.41133950e-03, -2.09952472e-04, -7.38474864e-06, -8.18177534e-04,
       4.40091360e-04, 2.88354699e-03, -4.20729571e-04, 3.06982500e-03,
       1.07766874e-03, -4.80130075e-05, 1.20121380e-03, 1.57805544e-03,
       -8.59691587e-04, 6.55575568e-05, 2.02435162e-03, -9.94308502e-04,
       1.44729507e-04, 1.18963851e-03, 1.27092260e-03, 7.36067770e-04,
       4.60031937e-04, -1.49229134e-03, -1.79254997e-03, -1.45717568e-04,
       -7.24015059e-04, 7.85528857e-04, 5.24195144e-04, 6.04203669e-04,
       -1.04205532e-03, 1.50743104e-03, -3.22182226e-04, -7.20157637e-04,
       5.22043649e-03, 4.53262415e-04, 1.95146818e-03, 7.37982453e-04,
       -1.67569926e-03, -2.47812527e-03, 1.37852645e-03, 1.04720530e-03,
       5.36540872e-04, 5.94831444e-03, 7.76837114e-04, -1.14018808e-03,
       -4.23776160e-04, -2.47342396e-03, -8.40759487e-04, 1.02467858e-03,
       -2.57909321e-03, -1.45910017e-03, 3.23747750e-03, 8.00519250e-04,
       1.67058792e-03, 1.16383703e-03, -8.52086057e-04, -9.93134337e-04,
       1.27025577e-03, -2.94741266e-03, -5.97089587e-04, 1.69891166e-03,
       1.37805264e-03, 3.25250230e-03, 1.30721019e-03, -1.42820471e-03,
       -1.79963175e-03, 3.37062520e-04, 1.20762642e-03, 1.77702255e-04,
       9.33966483e-04, -5.35306579e-04, -9.22134961e-04, -4.73512569e-04,
       -1.36844721e-03, -4.86833393e-04, -4.11083602e-04,
       -4.38453833e-04, 1.88862599e-04, 4.60604951e-03, 4.66546262e-05,
       1.23147178e-03, 1.49075684e-04, -1.23324560e-03, -3.77048185e-04,
       8.06883792e-04, 5.26586839e-04, -3.32297321e-04, 1.01200724e-03,
       2.92662065e-04, 2.32810830e-03, 4.35083493e-04, -6.06658694e-04,
       1.45374297e-03, 7.99061148e-04, 2.21657404e-03, 1.36646209e-03,
       2.76492606e-03, 9.75690258e-04, 1.29298540e-03, -8.23728187e-05,
       1.08084967e-03, -7.26782193e-04, -1.51242118e-03, -5.42930386e-04,
       2.67478084e-04, 4.76916414e-03, 4.90169507e-04, 1.13963697e-03,
       -6.89345587e-04, -5.13886102e-04, -1.56853907e-03,
       -2.65510310e-03, -8.61812732e-04, 1.84679782e-04, 6.46435004e-03,
       -2.64086091e-04, 1.12765410e-03, -1.58606563e-03, -5.86498238e-04,
       1.03588356e-03, -1.84724980e-03, -1.52938254e-03, 1.10834709e-03,
       5.06877550e-04, 5.43544593e-04, 3.11878789e-03, 5.53991471e-04,
       1.60261255e-03, 6.20985404e-04, -1.75887428e-03, -4.40484175e-04,
       -4.26848535e-04, 1.08261150e-03, -5.33563842e-04, -1.48498320e-05,
       -7.76624947e-04, 1.70321204e-03, -1.97091768e-03, -1.78343779e-03,
       -1.24900055e-03, 9.49346169e-04, 6.62980322e-03, 2.51971564e-04,
       4.04262333e-04, -1.11394527e-03, -1.32017920e-03, -2.84783961e-03,
       -6.55547134e-04, -1.10410532e-04, 1.82945945e-03, 4.30554524e-03,
       -6.81343663e-04, -2.20989529e-03, -1.12644001e-03,
       -2.41454388e-03, -9.63606697e-04, -5.98821847e-04, 8.79284285e-04,
       6.88842731e-04, 2.96284771e-03, -2.19440160e-04, 3.03292793e-04,
       -2.48589233e-04, 4.55696485e-04, -1.66600838e-03, -4.34746937e-04,
       -1.86300851e-04, 1.49556505e-03, 4.48828156e-04, 2.94787769e-05,
       3.91508918e-04, 5.48781769e-04, -3.00893764e-04, -9.42822371e-04,
       2.43099465e-04, 1.32152083e-04, 2.75051862e-04, 4.22579935e-03,
       -1.59168232e-03, -1.69299380e-03, -9.60496953e-04,
       -1.30964175e-03, 7.69510400e-04, -9.75281058e-04, -2.16593430e-03,
       4.65378951e-04, 5.45589533e-03, -1.66135468e-03, -2.32786033e-03,
       -3.89398425e-04, 5.14607760e-04, -2.92254233e-04, -7.76138331e-04,
       1.21662897e-05, -1.50139109e-04, 7.23435311e-04, -5.28809964e-04,
       -9.34485695e-04, -1.37466661e-04, 1.50772673e-03, 2.40174425e-03,
       -9.11919284e-04, -2.71401659e-04, -3.69737245e-04, 1.01419515e-03,
       -1.00908037e-04, -2.91404105e-03, 1.51947694e-04, 3.72618064e-03,
       3.70265334e-04, -1.25147111e-03, -8.11609381e-04, 9.18438775e-04,
       4.14318684e-03, -7.94639695e-04, -1.07442413e-03, -2.49596313e-04,
       6.89413049e-04, 1.23800803e-03, -1.58976263e-03, -1.68754940e-03,
       -8.39043700e-04, 3.97497555e-03, -5.01817442e-04, -2.79162457e-04,
       -4.52679320e-04, 1.88826339e-03, 2.58158031e-03, -2.04466516e-03,
       -2.15692120e-03, 8.36444960e-04, 9.81505844e-04, 6.85114122e-04,
       1.42282559e-04, 1.18550786e-03, 3.84507072e-03, 4.15207259e-03,
       -7.41561817e-04, -6.28980924e-05, 9.53254756e-04, -9.06708825e-04,
       8.55777853e-06, 6.85024788e-05, -5.59031148e-04, 4.11741668e-03,
       1.69554574e-03, -9.68019303e-04, -1.84850430e-03, 3.89062305e-04,
       4.85628564e-03, 5.93898003e-04, -6.50133647e-04, -1.42337129e-04,
       1.71494554e-03, -6.17985061e-05, -5.73552679e-04, -5.66613569e-04,
       1.72432291e-03, 2.96418089e-03, -4.90580569e-04, -2.73415237e-03,
       3.04693858e-05, -1.09860659e-04, 2.83335475e-03, -3.52134259e-04,
       7.55856512e-04, 1.23401324e-03, -3.84675252e-04, -2.71684898e-04,
       -1.58921932e-03, -7.74392276e-04, 3.46145593e-03, 2.34348793e-03,
       9.30896727e-04, 1.43173558e-03, 2.03334750e-03, -3.19367857e-03,
       -3.08960414e-04, -1.77131419e-03, -5.22687333e-04, 2.22331146e-03,
       -2.94460636e-03, -1.41706516e-03, -2.00600806e-03, 2.08982429e-03,
       3.55573068e-03, -1.62376731e-03, -2.18071649e-03, 3.75183117e-05,
       -2.51700799e-03, -2.13235631e-04, -6.15545374e-04,
       -2.30839499e-03, 4.56091156e-03, 4.50931210e-03, -2.65055802e-03,
       -9.16416233e-04, 5.74669568e-04, -2.19259862e-04, -7.11153189e-05,
       5.23868948e-04, 1.16977841e-03, 2.07668846e-03, -5.28109667e-04,
       -1.06432778e-03, -1.92579266e-03, -8.63368739e-04,
       -3.25781439e-04, 4.21669288e-03, 1.10333611e-03, 1.50385476e-03,
       4.75504389e-03, 8.11848906e-04, -3.94305040e-04, -8.43323302e-04,
       -3.78870580e-04, 2.91384803e-03, 2.15135471e-04, 1.15415060e-05,
       -2.02592369e-03, 2.62368610e-03, 5.62343700e-03, -2.38746521e-03,
       -1.02158519e-03, 5.56050451e-04, 3.88553919e-04, -8.07852368e-04,
       -4.70929575e-04, -1.27347326e-03, -2.08407547e-03, 3.60122067e-03,
       -1.94599119e-03, -2.53700349e-03, -1.02536799e-03,
       -1.33055693e-03, 2.98289605e-03, 5.05973119e-04, -1.98087469e-03,
       2.07380857e-03, 2.46893847e-03, -1.83259704e-04, 1.27614930e-03,
       8.14878498e-04, 1.72918069e-03, 2.74329656e-03, 7.51758344e-04,
       -1.00296177e-03, -1.56349281e-03, 1.76609808e-03, -1.38010702e-03,
       -6.52695657e-04, -7.77104578e-04, 1.67365116e-03, 1.10336207e-03,
       -3.55898199e-04, -8.93934746e-04, -1.72381394e-03, 4.32445621e-03,
       -2.51041602e-05, -3.03214462e-03, -9.04676213e-04, 4.64788609e-04,
       1.70112448e-03, 4.61937278e-04, -1.14421491e-04, 1.41601521e-03,
       2.78210593e-03, 7.98890600e-04, -2.93231895e-03, -1.09055429e-03,
       9.44694155e-04, 3.84777714e-03, 1.35613792e-03, 4.52553155e-04,
       -9.99908778e-04, 2.07900559e-03, -7.33278866e-04, -3.65643459e-03,
       -7.54405104e-04, 2.77499948e-03, 3.77903949e-03, 1.63327309e-03,
       1.83270581e-03, 3.01575667e-04, 1.63057283e-03, 5.74811362e-04,
       -1.48256589e-03, 1.93459753e-04, 3.51986079e-03, -6.96130854e-04,
       -6.00772328e-04, -2.24517589e-03, 1.98083697e-04, 3.48481908e-03,
       1.56820810e-03, -2.10139831e-03, -1.58898183e-03, -1.11978513e-03,
       -8.07237637e-04, 4.04647690e-05, -2.46290443e-03, -9.20995604e-04,
       3.51369171e-03, 1.32085895e-03, -3.06779891e-03, -3.02915089e-03,
       -1.69149821e-03, 3.06663336e-03, -2.78184976e-04, -9.17117053e-04,
       -9.88482963e-04, 2.92330352e-03, 7.05703336e-04, -1.96071807e-03,
       -1.38461497e-03, 2.72292504e-03, 3.81272635e-03, -5.56047249e-04,
       -3.01615102e-03, -1.79544860e-03, 6.82819460e-04, -4.35192400e-04,
       -2.32895743e-03, -8.49433360e-04, 4.07313788e-03, 6.81074744e-04,
       5.54621918e-04, -7.98654801e-04, -1.57576683e-03, 3.91862541e-03,
       -3.78559016e-05, -1.53504754e-03, -2.23280746e-03, 7.12160720e-04,
       2.61747540e-04, -8.39395972e-04, -2.30766181e-03, -2.26037949e-03,
       2.51321052e-03, -1.52935332e-03, -2.62284157e-05, -1.07758923e-03,
       7.09767919e-04, 3.22204991e-03, -1.46152242e-03, -3.94121232e-03,
       -6.41791208e-04, 1.46250776e-03, -1.07568013e-03, 1.43774116e-04,
       -2.45303265e-04, 4.51558828e-03, 1.62406976e-03, -2.10754201e-03,
       -3.66854644e-03, -1.42601540e-03, 3.44452332e-03, -2.21991562e-03,
       -2.28376346e-04, 1.94739070e-04, 3.71802668e-03, -2.23052775e-04,
       -1.17766508e-03, -2.02632742e-03, -3.03143344e-04, 4.01962548e-03,
       -1.56175159e-03, -1.32234662e-03, -6.38128316e-04, 6.11820491e-04,
       2.32891849e-04, 1.05796164e-04, 4.43943893e-04, 6.58143370e-04,
       3.69598810e-03, -2.69548665e-03, -1.60151429e-03, -8.26418342e-04,
       5.60411136e-04, 2.64378567e-03, -1.00224686e-03, -9.72520094e-04,
       -3.07927752e-04, 4.37054038e-03, -2.34542973e-03, -2.43829144e-03,
       -1.50089705e-04, 4.14480176e-03, 2.61120708e-03, 1.75056644e-04,
       -5.14585758e-04, -2.58272310e-04, 3.43711791e-03, -2.13385653e-03,
       -1.60428078e-03, -8.99111270e-04, 2.61480245e-03, -2.83754838e-04,
       6.76052994e-04, 1.76563498e-03, -1.55067386e-03, 3.58045031e-03,
       -1.31768349e-03, -1.90269121e-03, -1.60626555e-03,
       -5.91750431e-04, -4.77467875e-05, 1.04991451e-03, 8.51326447e-04,
       -1.26708555e-03, 5.00277244e-03, -1.19413198e-04, -7.14116264e-04,
       -3.44492815e-04, -9.49674068e-05, 1.65658619e-03, 7.00673030e-04,
       -1.05110761e-04, -2.52439082e-03, 2.86099222e-03, -1.59211049e-04,
       -3.29071016e-04, -1.31731713e-03, 1.19879679e-03, 2.94262939e-03,
       2.96596554e-03, 4.97613910e-05, -2.14900030e-03, 4.38774470e-03,
       7.67766207e-04, -1.31507951e-03, -8.72943056e-05, 2.93523492e-03,
       -5.02989744e-04, 2.25696567e-04, 2.12020575e-04, -6.15104160e-04,
       4.26397379e-03, -1.49634189e-03, -1.59030769e-03, -3.76332871e-04,
       3.88757326e-04, -1.01499376e-03, -6.30698807e-04, -9.60535908e-05,
       -2.58839809e-05, 3.51384049e-03, -9.64493782e-04, 9.83923092e-04,
       -6.43085456e-04, -3.26871115e-04, 2.82435515e-03, 1.20557868e-03,
       -7.79071066e-04, -1.87004171e-03, 2.42548063e-03, 3.84584768e-04,
       -2.51725665e-03, -1.45591512e-05, 3.75032541e-03, 2.49336148e-03,
       5.84538502e-04, 3.89087887e-04, 1.95707122e-04, -2.71618576e-03,
       1.35391499e-04, -1.32638984e-03, -2.15677646e-04, 3.36913019e-03,
       -1.79636967e-03, -1.02662749e-03, -2.18494330e-03, 6.93115406e-04,
       3.18090222e-03, 4.93271451e-04, -2.07261575e-04, -1.01079140e-03,
       -1.26231543e-03, -1.64276699e-03, -3.86343454e-04,
       -1.49563886e-03, -9.11269453e-04, 3.84653523e-03, 1.15856633e-03,
       -1.90733303e-03, -1.47809205e-03, -9.61644168e-04, 1.17544632e-03,
       6.60530291e-04, 1.66837091e-03, 1.68536918e-03, -5.50879282e-04,
       4.75705805e-04, -2.77775107e-03, -4.56922658e-04, 1.99624291e-03,
       1.80344435e-03, 7.36154558e-04, 9.91836772e-04, 6.55556098e-04,
       3.38522810e-03, 7.50392675e-04, -1.21234951e-03, -2.85985734e-05,
       2.50220182e-03, -2.18241103e-03, -1.57195702e-03, -2.54973117e-03,
       -2.14516092e-03, 1.45206519e-03, 1.43747195e-04, -1.77657336e-03,
       -1.37616671e-03, -9.13884374e-04, -1.40431989e-03,
       -2.17521843e-03, -2.82022846e-03, -5.50672354e-04, 4.75558173e-03,
       2.66730000e-04, -7.12941168e-04, -8.75002879e-04, 1.72433298e-04,
       9.68732522e-04, -8.91877979e-04, -1.04255986e-03, -1.01274729e-03,
       1.83807663e-03, 2.92154291e-04, -7.46464706e-04, -3.46396002e-04,
       2.74967635e-03, 2.55167065e-03, -1.44706550e-03, -1.30818051e-03,
       9.36339668e-04, 4.29502968e-03, 8.83259811e-04, 3.44186352e-04,
       4.66139492e-04, 4.39870078e-03, -7.61555508e-04, -3.22331995e-04,
       -8.93717457e-04, -6.02021464e-04, 4.96427901e-03, -1.11103698e-03,
       -1.93337968e-03, -1.44834665e-03, -2.68794902e-05,
       -1.68734603e-03, -1.42364981e-04, 1.11374073e-03, -1.69755178e-04,
       5.07186865e-03, -1.03941665e-03, 4.95549873e-04, -1.08590187e-03,
       -1.04901730e-03, 1.37999607e-03, -7.69658305e-04, -1.79479178e-03,
       1.19515148e-03, 3.75322439e-03, -6.44632564e-06, 3.95539886e-04,
       2.30245359e-06, 2.06716778e-03, 1.24379832e-04, -2.05637480e-04,
       -3.37360289e-05, 1.20852247e-03, 3.13491351e-03, -1.91165728e-03,
       -3.38424288e-04, -4.49080195e-04, 6.31029718e-04, -7.16283685e-04,
       -4.60956391e-04, 1.30969391e-04, 7.87904602e-04, 2.91610532e-03,
       2.30321239e-04, 2.19223788e-03, -3.68417619e-04, -1.52886249e-04,
       1.05505495e-03, 5.35394356e-04, 1.82816887e-03, 1.55670103e-03,
       2.33874773e-03, 7.79095630e-04, 3.11050261e-03, 3.93288501e-04,
       6.46414119e-04, 3.53194395e-04, -2.00116585e-04, 1.93780824e-03,
       1.93203823e-03, 1.00734038e-03, -1.30028208e-03, -2.51813768e-03,
       -5.50037948e-04, 1.02637929e-03, -1.55622402e-04, 3.37042060e-04,
       2.01898068e-03, 2.11665803e-03, 1.63477780e-05, -5.01557312e-04,
       1.30669458e-03, 5.27686789e-04, 1.08459638e-03, 2.12958170e-04,
       -2.29603393e-04, -7.15874376e-06, 7.50762993e-04, 2.93733855e-03,
       1.12463185e-03, 1.61794899e-03, -4.94833657e-05, 3.66778520e-04,
       1.71557302e-03, 7.86279968e-04, 9.26563400e-04, -4.01147467e-04,
       2.15293909e-03, 2.10163812e-03, -1.67979160e-04, 1.08040706e-03,
       2.50980305e-03, 1.66684942e-04, -3.17568978e-04, 1.74130619e-04,
       1.47223080e-04, -2.00214190e-03, 8.25255760e-04, -3.73970252e-04,
       -9.66203399e-04, 7.27493549e-04, 2.69752066e-03, 6.99210505e-04,
       1.24195521e-03, 3.46662360e-04, -6.03940571e-04, 7.27030565e-04,
       -3.34635656e-03, -8.46063485e-04, 3.08851246e-03, 2.90639320e-04,
       2.48430675e-04, -3.94203264e-04, -2.56522890e-05, 1.48158439e-03,
       5.95132122e-04, -1.15240167e-03, -1.96343550e-04, 6.02669781e-04,
       -3.50565424e-05, -1.51516200e-04, -2.33131507e-03,
       -1.78818253e-03, 4.47545806e-03, 2.63867923e-03, 4.57048809e-05,
       -1.54855184e-03, -1.76492066e-03, 2.05155788e-03, 3.31301533e-04,
       6.38584839e-04, -1.29691197e-03, -1.23327016e-03, 2.69418774e-06,
       -1.23205001e-03, -1.90782026e-04, 1.82724849e-03, 6.86064421e-04,
       5.61608358e-05, -8.22777161e-04, -2.74529820e-03, 3.35420622e-03,
       2.53760698e-03, 2.68137752e-04, 6.61616650e-05, 3.28636052e-05,
       3.05606140e-04, 3.38514772e-04, -1.25279708e-03, 1.07920938e-03,
       6.08000066e-03, 2.94848066e-03, 2.13932057e-04, -1.06447132e-03,
       -1.55386887e-03, -1.08603842e-03, -5.83604793e-04,
       -3.62986873e-04, 4.43858700e-03, 2.80576129e-03, 1.27269933e-03,
       4.26729006e-04, -6.14731340e-04, -1.55397924e-03, 6.09573442e-04,
       -2.57889129e-04, -2.25730333e-03, 5.70502540e-04, 4.82318131e-03,
       3.17648333e-03, 2.59975553e-04, 6.56234100e-04, 6.06560963e-04,
       -5.64087182e-04, -1.79509656e-03, -2.67733238e-03, 2.43374007e-03,
       -1.00314966e-03, 1.58502313e-03, 7.01024837e-04, 8.68500909e-04,
       4.03446495e-04, -8.65118171e-04, -2.95914870e-05, 1.61521893e-03,
       3.48368683e-03, 4.96430323e-03, 5.24441071e-04, 8.52435012e-04,
       -4.33861569e-04, -9.40960192e-04, 1.68030569e-03, 9.71093308e-04,
       1.61621650e-03, 1.63518870e-03, -1.68603461e-03, -1.13880180e-03,
       -1.76760752e-03, 6.20071834e-04, 2.65007210e-03, 3.20464576e-04,
       -2.74554943e-04, 1.26177375e-03, 2.30451184e-03, 1.24136801e-04,
       -8.34301347e-04, -7.12433481e-04, -8.94931145e-04, 2.13456980e-04,
       2.68419576e-03, 1.43560045e-03, 3.36065819e-03, 1.61314220e-03,
       -3.38507607e-03, -2.31211120e-03, -2.62547960e-03,
       -7.15951901e-04, 3.04355077e-03, 6.78647193e-04, 1.17095280e-03,
       1.13066030e-03, -5.34644932e-04, -1.82914338e-03, -3.87426961e-04,
       -3.65136308e-03, -2.96271028e-05, 1.86110556e-03, -3.27544543e-03,
       1.69001380e-03, 2.26569851e-03, 1.98681280e-03, 7.20939320e-03,
       1.30806060e-03, -8.16546904e-04, 8.68826814e-04, -3.18975747e-03,
       2.05901312e-03, 8.81319982e-04, 9.03515378e-04, -6.84626342e-04,
       -5.59922308e-03, -7.92573264e-04, -3.22869373e-03,
       -2.02210082e-04, 2.62026140e-03, -8.15918960e-04, 1.61082216e-03,
       2.72555416e-03, 1.49466319e-03, 6.03747088e-03, 1.39444147e-03,
       6.37646997e-04, 1.48504262e-03, -8.21831753e-04, -1.69179181e-03,
       4.01200261e-03, 5.72295347e-03, 2.43391795e-03, 2.61270162e-03,
       -6.62121223e-04, -7.53393688e-04, -2.49573117e-04,
       -2.83321645e-03, 2.33145780e-03, 1.45799632e-03, 1.36902428e-03,
       5.11675898e-04, -2.65861233e-03, -1.60542340e-03, -7.32363784e-04,
       1.86277262e-04, 2.95094447e-03, -2.23164470e-03, 3.14208143e-03,
       4.26124549e-03, 1.34904718e-03, 3.59339453e-03, -7.16956929e-05,
       5.08033903e-04, 4.39850352e-04, -3.25854262e-03, -3.10810661e-04,
       9.48546280e-04, 1.03307294e-03, -4.42167220e-04, -4.13091620e-03,
       -9.24746913e-04, -2.74745934e-03, -9.18122067e-04,
       -3.88286659e-04, 1.86717953e-03, 1.35175581e-03, 1.53913780e-03,
       1.60304669e-04, 9.54142248e-04, -1.60240463e-03, 8.36854684e-04,
       9.20999737e-04, 2.43368349e-03, -2.10147526e-04, -8.08890618e-05,
       6.25611108e-04, -7.52237509e-04, 7.84901495e-04, -7.31011969e-04,
       1.23166770e-03, -2.10059297e-04, 6.20344596e-04, -1.06824061e-03,
       8.94315133e-04, 2.67384923e-03, 1.88948150e-04, -2.41769783e-04,
       -1.41603756e-03, -2.27527297e-03, -4.72029700e-04,
       -1.18484290e-03, -2.86890590e-03, -2.98015093e-05,
       -3.79863835e-04, -2.05169737e-04, 6.81899692e-05, -5.18530607e-04,
       -3.06377449e-04, -4.35345108e-04, -3.42887291e-03, 2.71485187e-05,
       3.96644929e-04, 9.60141711e-04, 1.69276325e-06, -8.97716091e-05,
       5.70093747e-04, 1.16621039e-03, 1.49599946e-04, 1.15124567e-03,
       2.27106363e-03, 2.05364823e-03, 1.99370109e-03, -9.56770964e-04,
       -1.73466501e-03, 7.72074563e-04, 1.13914977e-03, 8.09544756e-04,
       3.24741541e-03, -2.38754111e-03, 4.95682587e-04, -8.78432649e-04,
       3.83577688e-04, 5.04379452e-04, 7.54571985e-04, 2.39573373e-03,
       9.54570947e-04, -2.37180083e-03, -5.92528842e-04, 5.54969069e-04,
       1.96809275e-03, -1.18894689e-03, -2.60670786e-03, 1.81889848e-03,
       2.95764999e-03, 9.61047655e-04, 1.64154317e-05, 1.67830160e-03,
       1.87584141e-03, 2.12652888e-03, -1.09004020e-03, -2.25229724e-03,
       2.17186855e-04, -8.18954722e-04, -2.51999649e-04, 2.62188306e-03,
       8.66767077e-04, 1.60471385e-03, -3.56578930e-05, -1.76928972e-03,
       -3.40941391e-04, -3.53124953e-04, -9.42854735e-04, 1.53236542e-04,
       5.62567613e-04, 3.66739754e-04, 1.13111234e-03, 1.18336384e-03,
       -2.14224472e-03, -1.88184949e-03, 1.59639423e-03, 4.14916547e-03,
       1.30014634e-03, 9.05929483e-05, 5.20799367e-04, 1.01463322e-03,
       -2.22796778e-04, -1.84740266e-03, 3.66458436e-04, 5.28571079e-04,
       5.14867133e-04, 3.68884677e-04, -4.44384612e-04, 1.26750895e-03,
       2.53609847e-03, 1.82862801e-03, -1.00743107e-03, 2.37523997e-03,
       -1.23285619e-03, -7.44153047e-04, -3.68100067e-04, 4.31600405e-04,
       -6.75058865e-04, 7.15791772e-04, 1.64424884e-03, -1.32280309e-03,
       -1.74729084e-03, -8.80387495e-04, -1.90398493e-03,
       -1.62875839e-03, -6.97473006e-04, 8.15426349e-04, 1.89191871e-03,
       2.10470171e-03, -6.29439659e-04, 9.60875535e-04, -4.65075776e-04,
       1.87387085e-03, -2.43510469e-04, 1.91129249e-04, -1.71013223e-03,
       -7.23811274e-04, -6.80354366e-04, -6.69792469e-04,
       -2.12700991e-03, -8.31833051e-04, 8.25479161e-04, -2.04044138e-03,
       -2.23839981e-03, -2.82247784e-03, 7.79532187e-04, 7.21958786e-05,
       -2.62710615e-04, 1.86720898e-03, 4.12331428e-04, -2.99421314e-04,
       -5.59922890e-04, -1.92416657e-03, -1.09242299e-03, 1.42514182e-03,
       -1.25013187e-03, -9.51202179e-04, 2.95565906e-03, 1.58003974e-03,
       2.75428104e-03, 4.03664890e-04, -1.19505392e-03, -2.97623454e-03,
       -4.58512281e-04, -1.11369230e-03, 4.53004963e-04, 3.62881081e-04,
       -4.98579582e-04, 2.08118538e-04, -3.42380517e-04, -2.11387686e-03,
       -2.16762349e-03, 1.06370193e-03, -1.21561554e-03, 4.31568944e-04,
       3.63961421e-03, -6.34330732e-04, -1.44171156e-03, 2.72773585e-04,
       -1.84672454e-03, -8.07490433e-04, 4.97823174e-04, 4.91129504e-05,
       -1.58776133e-03, -1.23116872e-04, 3.09350318e-04, 1.73180806e-03,
       7.67453676e-05, -8.85603076e-04, 4.01928788e-04, -3.76185228e-04,
       1.16945675e-03, 1.30740134e-03, -1.93287808e-04, 1.04411982e-03,
       2.99747661e-03, 8.89169460e-04, 4.02713369e-04, -6.53929252e-04,
       5.78506151e-04, -8.94650002e-04, -9.68810491e-05, 4.04339298e-05,
       -6.45213062e-04, -1.56336941e-03, 6.87645574e-04, -1.41163194e-03,
       1.03412231e-03, 1.72266911e-04, 3.16378748e-04, 6.93555514e-04,
       -4.07288317e-04, 1.37572258e-03, 7.85618729e-04, 6.51239941e-04,
       5.20474801e-04, 5.05701231e-04, -1.47123367e-03, -1.19049498e-03,
       9.83652775e-04, -1.12517120e-03, 1.28257088e-04, 2.85038422e-03,
       1.34231162e-03, 9.19303275e-04, -2.41012312e-04, -1.28476217e-03,
       -9.57458222e-04, -1.42062758e-03, -2.47522187e-03,
       -1.30817108e-03, 2.57863034e-03, 1.00208307e-03, 8.65466136e-04,
       1.06431881e-03, -2.37538479e-04, -1.97417190e-04, 3.57647019e-04,
       -1.27602054e-03, 4.35681693e-04, 7.69504113e-04, 5.90700947e-04,
       9.57234297e-04, 3.81683385e-05, -2.36751628e-03, -4.55053290e-03,
       -2.97115347e-03, -2.29222607e-03, -6.67785003e-04, 4.55857906e-03,
       2.07066745e-03, 4.79770068e-04, -2.14319397e-03, -7.11892091e-04,
       4.59884817e-04, -4.95211803e-04, 7.43044598e-04, -1.28621439e-04,
       1.21003005e-03, 5.36166772e-04, -6.49390800e-04, -2.60680611e-03,
       -9.03480337e-04, -8.93063261e-04, 3.72809300e-04, -4.56256035e-04,
       1.02690107e-03, 1.34466437e-03, 1.93160522e-04, -1.26276794e-03,
       -2.04858516e-04, -1.44224020e-03, -4.61671827e-03,
       -2.29817792e-03, 1.62068801e-03, 1.77915464e-03, 4.29798989e-03,
       2.12901807e-03, 2.79849366e-04, 4.15422168e-04, 1.15163821e-04,
       -2.07778951e-03, -1.88490422e-03, -1.83387473e-03, 2.33563432e-03,
       1.58486445e-03, 1.10186182e-03, -1.66499121e-05, -1.85490737e-03,
       -1.67746062e-03, 6.02903892e-04, -9.46152955e-04, -3.89010267e-04,
       5.15329593e-04, 4.30457440e-04, -8.22966394e-04, -3.29844130e-04,
       -7.51298328e-04, -2.04027630e-03, -2.60411238e-04,
       -5.90732438e-04, 7.29050880e-05, 4.59098053e-04, -1.14563177e-03,
       -8.88736395e-04, 3.54597112e-04, 1.98401022e-03, -1.33742171e-03,
       -9.32743133e-04, -2.24704435e-03, -1.46472512e-03, 1.52949791e-03,
       2.95207510e-03, 1.01550220e-04, 1.90302636e-03, 4.45233472e-03,
       -5.49144635e-04, -1.67120039e-03, 5.44678420e-04, 9.40532947e-04,
       5.34276245e-04, 2.36185640e-03, 1.62938100e-04, 3.58897168e-03,
       -1.13674963e-03, -2.11509783e-03, -1.98438042e-03,
       -1.63593155e-04, -7.27033592e-04, 9.49334062e-04, 1.11085770e-03,
       2.55213759e-04, -4.12215275e-04, -6.37562131e-04, -8.34162754e-04,
       1.52374678e-05, 1.93356900e-05, 8.13699036e-04, 8.57078121e-05,
       1.54296914e-03, -5.16793116e-05, -7.85764481e-04, 9.06325295e-04,
       -7.91967323e-05, 2.50918820e-04, 1.00052170e-03, 1.03903841e-03,
       2.49326840e-04, -2.76181163e-05, -1.08592166e-03, -3.17391641e-06,
       2.44592142e-04, 8.90480296e-04, 2.46820087e-03, 1.35397236e-03,
       1.67006685e-03, 5.05537027e-04, 1.34509092e-03, -7.68257538e-04,
       -1.14996836e-03, -1.15833199e-03, -4.49316576e-04, 4.03319980e-04,
       -1.75809168e-04, 8.65046866e-04, -6.63433239e-05, -4.03130980e-04,
       3.03569068e-05, -3.12894408e-04, -6.56223681e-04, 8.34355771e-04,
       3.00007494e-04, -1.15175317e-04, -1.64014485e-03, -9.24907567e-04,
       -1.64408237e-03, -9.33176896e-04, -2.39417524e-04,
       -5.11249527e-05, 1.31882902e-03, 7.70654297e-04, 8.16340093e-04,
       2.49896548e-03, 9.55358555e-04, 8.24020186e-04, 9.82810045e-04,
       -4.90030216e-04, 3.12273682e-04, 2.20438000e-03, 8.28088305e-05,
       6.78097422e-04, 6.99070981e-04, -1.31244119e-03, -4.85517638e-04,
       7.11068918e-04, -3.38682672e-04, 1.30246799e-05, 8.98989965e-04,
       5.98080107e-04, 3.41733568e-04, -4.04592196e-04, -1.22821680e-03,
       -4.79650975e-04, -6.56393939e-04, -5.52685815e-04, 7.91161845e-04,
       -7.99286994e-04, 1.78122762e-04, 2.07547029e-03, 9.37116623e-04,
       -9.55515017e-04, -8.11480451e-04, -1.15325430e-03, 2.35236846e-04,
       1.71000138e-03, 2.42033368e-03, 4.18337208e-04, -1.74402536e-04,
       -1.32891277e-04, -1.91119581e-03, -5.99203864e-04, 1.69369468e-05,
       -5.93204284e-04, 1.93416420e-03, -4.12287307e-04, -9.76860523e-04,
       1.55530311e-03, 1.70809205e-03, -1.17410731e-03, -1.86979829e-03,
       -4.23704150e-05, 1.18165871e-03, 5.82305598e-04, -1.32231216e-03,
       -2.65294383e-03, 1.64020585e-03, 1.99427176e-03, -1.22661761e-03,
       -2.43006565e-04, -4.00126155e-04, -1.48411738e-04, 5.35773172e-04,
       -4.09521563e-05, -3.30036273e-04, -8.54407554e-04, 7.73451466e-04,
       -1.45660306e-03, -1.03921443e-03, -1.19951926e-03, 9.82354832e-05,
       2.10465095e-03, -1.23149087e-03, -2.52330618e-04, 1.76501367e-03,
       1.23464013e-03, -1.38412521e-03, -7.46773730e-04, 5.49959077e-04,
       2.87181512e-03, 1.58749009e-03, -2.48499273e-05, 8.45211034e-04,
       -1.55518809e-03, 1.31470885e-03, 4.42669552e-05, -1.07296335e-03,
       3.42776999e-04, 2.22985866e-03, 8.70361342e-04, 2.44177761e-04,
       -1.31533993e-03, -1.35366281e-03, 1.76065147e-03, -7.15229078e-04,
       -2.61399802e-03, -7.53176922e-04, 6.00173429e-04, 1.42055750e-03,
       7.50779465e-04, 3.94841307e-04, -1.43882132e-03, 2.82408693e-03,
       -1.74380182e-06, -1.59639132e-03, -6.41329505e-04, 1.43086363e-03,
       1.59350887e-03, 7.61090923e-05, -1.60379894e-03, -1.37163047e-03,
       2.86829285e-03, 4.39946656e-04, -6.12134580e-04, 9.12876159e-04,
       1.97663670e-03, 7.22900149e-04, 2.82402412e-04, 1.03890966e-03,
       -9.55675903e-04, 1.49136304e-03, -6.26290741e-04, -2.51102261e-03,
       1.82294694e-04, 1.07876770e-03, 2.11534533e-03, 4.99538961e-04,
       5.91315038e-04, -2.51895469e-03, 2.80747726e-03, -3.14103294e-04,
       -1.39560690e-03, -8.84498761e-04, 2.22776062e-03, 1.89917744e-03,
       -1.55259695e-04, -1.26656517e-03, -2.64442037e-03, 1.64348778e-04,
       -1.45536917e-03, 3.94516355e-05, 5.26579563e-04, 3.17960512e-03,
       6.02499240e-05, 1.99462898e-04, 1.54183153e-03, -2.05825828e-03,
       8.30107601e-04, -1.62677898e-03, -2.23309081e-03, 1.12367066e-04,
       1.07000093e-03, 1.22768711e-03, -2.44229159e-04, 1.18188304e-03,
       -2.52192793e-03, -1.51877559e-03, -1.14516390e-03,
       -3.25811026e-03, -8.12526094e-04, 2.54058326e-03, 1.24547549e-03,
       -8.47055519e-04, -3.90976667e-03, -1.95148366e-03, 6.09349110e-04,
       -1.64423184e-03, 3.68406938e-04, 5.85264119e-04, 3.11264582e-03,
       1.56829273e-03, -8.41401168e-04, -1.42629910e-03, -1.79003587e-03,
       1.73736748e-03, -3.48615833e-03, -2.61206250e-03, -1.25890583e-04,
       4.20260057e-03, 3.21678398e-03, -6.33600750e-04, 1.69425082e-04,
       -9.57848795e-04, 2.17130742e-04, -6.55740441e-04, -3.21001466e-03,
       -5.95969264e-04, 4.82167490e-03, 4.23581991e-03, -2.89745949e-04,
       1.04691787e-03, -1.38008024e-03, 1.68866257e-03, -1.55687251e-03,
       -3.21451994e-03, -1.54693180e-03, 5.47131663e-03, 9.14345583e-05,
       -7.12555193e-04, 1.04108313e-03, -5.28219389e-04, 4.09253361e-03,
       -1.99027057e-03, -3.09278700e-03, -8.11017526e-04, 1.69541547e-03,
       2.61957495e-04, -7.41795302e-05, 1.36303366e-03, -8.91040370e-04,
       1.99545058e-03, -1.82496302e-03, -2.98789208e-04, -1.70262787e-03,
       3.51532595e-04, 2.24878616e-03, -2.14284999e-04, 1.47564721e-03,
       -1.19041291e-03, 3.46224941e-03, 5.55001316e-04, -3.18396022e-04,
       -7.87987665e-04, 3.43051250e-03, 8.52069759e-04, -2.90886790e-04,
       2.10506935e-03, -1.53036241e-03, 1.21258269e-03, 3.80324927e-05,
       -2.74210121e-03, -1.25786464e-03, 2.50535225e-03, 3.51127710e-05,
       3.23675864e-04, 2.64471426e-04, -2.56640743e-03, 1.25334936e-03,
       -3.20503896e-04, 3.35835823e-04, -9.38339159e-04, 6.31371979e-04,
       1.74794858e-03, 2.06434866e-03, -1.02241836e-04, -2.66987551e-03,
       3.83698777e-03, -1.84763820e-04, -7.39237701e-04, -4.42168064e-04,
       2.25950405e-03, 8.13587219e-04, -4.10541797e-05, -7.11258108e-05,
       -3.07834172e-03, -2.39551766e-04, -9.15673561e-04, 1.42336386e-04,
       5.86719951e-04, 2.24131625e-03, 1.65109383e-03, 1.08680397e-03,
       -3.93689814e-04, -1.91901310e-03, 5.26344695e-04, -1.47208851e-03,
       7.18098949e-04, 1.24292995e-03, 2.32922356e-03, 1.63592433e-03,
       1.07401062e-03, -6.81783946e-04, -1.54043362e-03, 3.02401371e-04,
       -6.18022052e-04, -2.20351643e-03, -5.95205231e-04, 2.17760052e-03,
       -3.10819392e-04, -2.21099821e-04, -3.43998923e-04,
       -1.57881979e-04, -1.94417324e-03, -4.51104337e-04,
       -1.37857860e-03, -5.57382824e-04, 8.81092099e-04, 1.53807306e-03,
       1.54433527e-03, 2.42445408e-03, -2.40678317e-04, -6.14900491e-04,
       -1.58496748e-03, 6.83498278e-04, 9.66304389e-04, 2.79513397e-03,
       6.42484883e-05, 1.81496755e-04, 1.45943544e-03, 3.21596279e-04,
       -4.33504814e-04, -8.82584311e-04, 2.37542274e-03, 1.03731966e-03,
       1.25180057e-03, -8.94695928e-04, -3.41031700e-04, -3.29716306e-04,
       1.04751450e-03, -3.28339427e-03, 4.00933583e-04, 1.01100959e-04,
       3.92918082e-05, 3.13833792e-04, 2.01091418e-04, -7.21564982e-04,
       -1.79799984e-03, -8.22739166e-05, 1.06743793e-03, 5.94975019e-04,
       8.24265648e-04, -2.98475992e-04, 6.40606624e-04, -9.66830121e-04,
       -1.41249003e-03, -1.85659295e-03, 5.05723874e-04, 1.17159309e-03,
       4.09953005e-04, 2.57632672e-03, 1.80077506e-03, 1.00599625e-03,
       7.99660455e-04, -1.32199831e-03, -1.63019844e-03, 5.34523628e-04,
       4.39475244e-03, 5.09964302e-04, 1.14941271e-03, 5.77867497e-04,
       1.69483246e-03, -3.38025769e-04, -6.66147971e-04, -9.60297592e-04,
       -1.88400189e-03, 1.53571751e-03, 1.20943390e-04, 9.19463055e-05,
       -5.82122826e-04, 8.84851557e-04, -2.18919464e-04, -1.34217914e-03,
       -1.82766654e-03, -4.43915778e-04, 1.24275603e-03, 1.23140588e-03,
       8.91270989e-04, -5.57060848e-05, 1.19400385e-03, 1.87088887e-03,
       -6.71542890e-04, -1.45338767e-03, -1.86802470e-03, 1.14095793e-03,
       -2.78599880e-04, -6.98206772e-04, -8.35964107e-04, 2.66893045e-03,
       1.88151747e-03, -5.58247091e-04, -1.01487618e-03, 4.59056493e-04,
       6.63403363e-04, 8.53982870e-04, 6.43689491e-05, -3.80178331e-04,
       2.34333216e-03, -9.70666646e-04, -1.01457362e-03, -2.85468390e-03,
       7.93068262e-04, 4.77409747e-04, 8.50341821e-05, 8.47824384e-04,
       2.78454798e-04, -5.09272388e-04, -3.50317801e-04, -7.26348080e-04,
       -9.51544382e-04, 9.23630141e-04, -5.55980660e-04, -2.95223459e-03,
       -7.46038742e-04, 6.33206000e-05, -3.23313521e-04, -8.03183357e-04,
       -5.02110925e-04, -1.23853807e-03, 1.56396220e-03, 1.84555340e-03,
       -1.65537611e-04, 7.03035970e-04, 9.34527547e-04, -1.24031707e-04,
       -1.97411678e-03, -5.30496822e-04, -5.23749855e-04, 1.54560828e-03,
       1.37719268e-03, -2.87557277e-03, 6.78279321e-04, 5.56050683e-04,
       -2.02572648e-03, -2.58071261e-04, -8.62018147e-04, 1.60271791e-03,
       1.53229712e-03, 7.75405439e-04, -2.00877688e-03, -2.05488104e-04,
       5.01704810e-04, 1.06381392e-03, -8.88567651e-04, 2.09270482e-04,
       2.92640016e-03, 2.30973121e-03, -2.94257101e-04, -6.98041404e-04,
       1.10765302e-03, 8.98557366e-04, 8.57437844e-04, -1.54030218e-03,
       -7.74049084e-04, 2.35764324e-04, 1.82329514e-03, 2.22007604e-03,
       -1.74127670e-03, 1.03678147e-03, 8.53479432e-04, -7.03114900e-04,
       -1.35413196e-03, 8.20670859e-04, 2.57791881e-03, 1.80608931e-03,
       -6.84129132e-04, -1.37229962e-03, -1.76320749e-03, 9.43159801e-04,
       -8.90031108e-04, 4.52942302e-04, 4.98138310e-04, 2.30423338e-03,
       3.44833446e-04, -5.09120757e-04, 1.42930803e-05, 5.33080929e-05,
       7.87301760e-05, 1.32548681e-03, 1.91300991e-03, -4.33129608e-05,
       1.69902307e-03, 1.05094234e-03, 8.70994932e-04, 1.36853370e-04,
       -8.99283914e-04, 1.99453396e-04, 2.36548996e-03, -4.80466202e-04,
       5.37833665e-04, 1.81283848e-03, -1.09119678e-03, -3.01129417e-03,
       -1.83684588e-03, -3.33231175e-03, 5.13643492e-04, 2.17980632e-04,
       -2.20943388e-04, -1.65298686e-03, -6.78408192e-04, 4.06704261e-04,
       1.03662885e-03, 2.77174491e-04, -2.41908734e-03, 1.87301694e-03,
       2.71998765e-03, 7.77455862e-04, -6.15944213e-04, 1.17207121e-03,
       -3.28646420e-04, -5.41857968e-04, -2.45854317e-04,
       -7.85843877e-04, 5.71466866e-04, 1.34976313e-03, -7.41555938e-04,
       -3.37468577e-04, 4.74252505e-04, -1.75708032e-03, 4.78887418e-03,
       7.62708834e-04, 3.61372251e-04, 6.33117510e-04, -4.31598397e-04,
       -1.08643004e-03, -1.42821914e-03, 3.02712870e-04, 1.07121840e-03,
       -5.68998687e-04, -2.35771422e-05, -2.85543874e-03, 1.37511780e-03,
       2.00269185e-03, -2.42498447e-03, -7.42074917e-04, 1.50486967e-03,
       1.42577174e-03, 7.97956134e-04, 1.10819987e-04, -1.22881553e-03,
       -4.44503356e-04, -1.42523914e-03, -1.06225046e-03,
       -1.44667967e-04, -1.27739226e-03, 1.16015639e-04, 2.92867725e-03,
       1.66018342e-03, -3.52505740e-04, 6.19962928e-04, -1.18701532e-03,
       -9.23295564e-04, -1.11075889e-04, -3.27190908e-04, 1.69531163e-03,
       4.61914577e-04, 8.71983299e-04, 2.59959488e-04, 3.11537558e-04,
       -8.73624405e-04, -2.51259981e-03, 9.18411824e-04, 1.48951053e-03,
       2.28103274e-03, 8.67507479e-04, 3.28521041e-04, -1.05122570e-03,
       -8.01303890e-04, -2.93558114e-03, -2.39756377e-03, 1.46254350e-03,
       2.92529631e-03, 3.42175877e-03, 1.29863198e-04, -7.15946720e-04,
       -1.16420013e-03, 3.49049689e-04, -3.03125195e-03, -4.87218145e-04,
       3.19246523e-04, 8.23243521e-04, 1.21958379e-03, 6.11164505e-05,
       -1.21347501e-03, -7.08567910e-04, -6.81557402e-04,
       -1.00894622e-03, 1.37076771e-04, 1.28792436e-03, 2.98931543e-03,
       -5.61857480e-04, -1.00843678e-03, -3.01675126e-03,
       -1.45979400e-03, -1.18410925e-03, -6.15305151e-04,
       -8.23968672e-04, 1.22431127e-04, -3.94193921e-04, 7.67383841e-04,
       3.78291914e-03, -1.32964656e-03, 4.86527133e-04, 1.92001485e-03,
       -3.41683073e-04, 3.16270714e-04, 9.32582014e-04, -3.89161811e-04,
       -4.98850306e-04, 3.74529883e-03, -7.51846586e-04, 1.05108123e-03,
       1.69275491e-03, 4.81495808e-04, -8.05626914e-04, 1.22823380e-03,
       2.69640097e-03, -1.45610317e-03, -2.43458501e-03, -9.01237654e-04,
       -7.53308937e-04, -4.16766416e-04, -1.07801659e-03,
       -5.35120163e-03, 2.25552730e-03, 4.20835475e-03, 1.44393276e-03,
       6.48258114e-03, 1.73648377e-03, 1.50117953e-03, 1.09604036e-03,
       -5.06477430e-03, -6.13252399e-04, 1.84607820e-03, 2.32137856e-03,
       -2.87266274e-04, 1.36683334e-03, 1.40114556e-04, -6.01714652e-04,
       -3.39436447e-05, -1.06957112e-03, -5.16043743e-03, 4.15010052e-03,
       6.69887709e-03, 1.88099896e-03, 8.87503661e-03, 3.01331794e-03,
       1.05051673e-03, 6.20327482e-04, -6.40815450e-03, -1.87222462e-03,
       2.49126274e-03, 3.30896373e-03, 5.13171894e-04, 2.51649716e-03,
       1.32901769e-04, 2.09530653e-03, 1.53063552e-03, -2.42812536e-03,
       2.07836143e-04, 1.28235272e-03, 3.72333947e-04, -1.31196145e-03,
       -2.66306824e-03, -6.23524305e-04, -8.02254130e-04, 8.58879008e-04,
       2.15482127e-04, -2.07614922e-03, 2.24407483e-03, 4.19050455e-03,
       -9.19127546e-04, -7.16236653e-04, -3.63314204e-04, 1.10160990e-03,
       1.73582521e-03, -2.03724043e-03, 4.15777648e-03, 1.78137608e-03,
       5.81428409e-04, -3.90871055e-03, -4.15223930e-03, -1.31201500e-03,
       1.35617482e-03, 2.30226689e-03, 3.80900642e-03, -4.18603391e-04,
       7.08813546e-04, 1.43946789e-03, -1.55540081e-04, 3.74955183e-04,
       -5.46025927e-04, -2.04334874e-03, -1.75582347e-04,
       -5.34927240e-04, -1.61581032e-03, -3.07294395e-05, 4.18730342e-04,
       4.46911406e-04, 2.02338095e-03, 5.39448636e-04, -1.50013762e-03,
       -4.52429085e-04, -2.29262048e-03, 2.79773120e-03, 3.18759761e-04,
       6.31701201e-04, -1.19098183e-03, -6.26113964e-04, 7.30142565e-05,
       1.74124877e-03, 2.56353896e-03, 3.00860940e-03, -6.46772824e-05,
       -3.64933541e-04, 1.14378589e-03, 4.91906212e-05, 5.49634860e-04,
       5.48434502e-04, -1.78362988e-03, 3.15813028e-04, -4.24581638e-04,
       -6.94591959e-04, 1.07029942e-03, -6.64148072e-04, 7.42411707e-04,
       1.29151868e-03, 9.90980887e-04, 4.68912272e-04, 1.48003237e-05,
       -1.59758178e-03, 1.50278280e-03, 8.75604921e-04, 1.60225594e-04,
       -5.05645003e-04, 1.13823812e-03, 2.29204446e-03, 2.42826249e-03,
       8.61952896e-04, 6.81674981e-04, 3.04072833e-04, 4.32033179e-04,
       2.76363950e-04, 1.22517173e-03, 2.79757148e-03, 2.03343763e-04,
       -9.49398091e-04, -2.23079420e-04, 1.58974130e-04, -2.43464543e-04,
       -1.21733022e-03, -2.92826584e-03, -6.92222442e-04, 3.53919866e-04,
       1.77339092e-03, -2.55939056e-04, 7.39280367e-04, 4.04667546e-04,
       1.06189935e-03, 5.89612173e-04, 5.18710818e-04, -1.52735226e-03,
       -1.01781043e-03, 1.80305308e-03, 1.91565102e-03, 4.08164778e-04,
       3.19460203e-04, 1.90952071e-03, 4.45651909e-04, -7.77863315e-05,
       -1.05943845e-03, -1.14724610e-03, 6.26665424e-04, -7.29580415e-06,
       6.31633739e-04, 1.28245819e-03, 5.12096740e-04, -1.17881713e-03,
       -7.76527624e-04, -1.27128675e-03, 1.86330653e-04, 1.42080255e-03,
       1.68061361e-03, 1.07863464e-03, 1.25374098e-03, 2.62029492e-03,
       -2.99656298e-04, -4.68161052e-05, -5.91966324e-04,
       -7.40980264e-04, 6.11358380e-04, 1.27745583e-03, 4.34946327e-04,
       2.86250026e-03, 2.13541766e-03, 1.77422015e-03, 1.21928845e-03,
       -3.98484874e-04, 1.17556984e-03, -7.05563987e-04, 2.60974542e-04,
       -2.23916824e-04, 9.54143179e-04, 2.03849224e-04, -2.59726192e-04,
       -6.22778607e-04, -2.97021033e-04, -2.21347110e-03,
       -1.10609538e-03, 7.49060746e-06, -8.40529858e-04, -8.48705313e-05,
       3.02749337e-03, 7.56163150e-04, 1.87245023e-03, -8.62218381e-04,
       2.74393149e-03, 3.26073088e-04, 1.42829330e-03, -1.23069229e-04,
       2.28374335e-03, -1.65690226e-03, -1.33380003e-03, -1.19283120e-03,
       -1.76547759e-03, -1.33671751e-03, 3.04995832e-04, -2.71262950e-03,
       -2.79513327e-03, -1.78507424e-03, -3.57944926e-04,
       -9.74767143e-04, -1.88570307e-03, 3.97500145e-04, -5.63031761e-04,
       -4.48575360e-04, -1.68391532e-04, 4.66315571e-04, 1.87598067e-04,
       1.15234428e-03, 1.00962201e-03, 3.19675746e-04, 1.32252101e-03,
       5.12243062e-03, -5.31866448e-04, -1.96383800e-03, 1.65342251e-04,
       5.29286393e-04, -1.81462863e-04, -8.06051947e-04, -2.86345865e-04,
       1.73764056e-04, -6.05561479e-04, 2.05744916e-04, -9.27902292e-04,
       -9.09073628e-04, -1.67467108e-04, 1.06920849e-03, 6.88506698e-04,
       3.07841430e-04, 1.33708760e-03, 1.28551782e-03, 2.03792588e-05,
       -1.72085024e-03, -7.06705556e-04, 1.82143645e-04, 8.67484894e-04,
       4.89648955e-04, -8.82070395e-04, 8.58323823e-04, 8.58289946e-04,
       -3.94187897e-04, -2.00968958e-03, 2.37725733e-04, 2.55344494e-04,
       2.27606832e-03, 4.34395508e-04, -3.31938354e-05, 8.65689712e-04,
       4.21320880e-03, 5.53120743e-04, 8.11840990e-04, 7.41564785e-04,
       2.05948134e-03, 2.33617984e-03, 7.25332182e-04, -1.08746532e-03,
       -4.23546117e-05, -2.27834913e-03, -7.00751494e-04,
       -2.29486241e-03, -5.28140401e-04, 1.17786916e-03, 2.97050434e-03,
       9.25426575e-05, -4.76167945e-04, 3.83700070e-04, 2.18073881e-04,
       3.06026457e-04, -9.78854834e-04, 7.00856559e-04, 3.41025880e-03,
       7.37252587e-04, -4.15652990e-04, -5.29016193e-04, 7.19872420e-04,
       2.67421594e-03, 2.45973555e-04, 1.58151507e-03, 4.95363725e-04,
       3.87208333e-04, -5.21947106e-04, -1.51221082e-03, -3.62097565e-03,
       -5.48664888e-04, 1.76384230e-03, 6.55235723e-04, 4.25501028e-03,
       1.47688494e-03, -7.40268733e-04, 4.53879649e-04, -6.38659752e-04,
       -2.15339102e-03, 1.44376172e-04, 2.52530933e-03, 3.93728580e-04,
       1.84290356e-03, 1.38463278e-03, 4.54248773e-04, -1.26424141e-03,
       -3.01812339e-04, -2.97430484e-03, 8.35432555e-04, -4.33058711e-04,
       -5.98083832e-04, 3.09972093e-03, 7.70801213e-04, -2.57545500e-03,
       2.59787339e-04, -1.89855334e-03, -5.09611797e-03, -1.10908877e-03,
       2.85160821e-03, 2.66161701e-03, 3.09718330e-03, 1.73082540e-03,
       7.00413366e-04, 1.24737888e-03, 3.41855164e-04, -2.57474417e-03,
       -1.90624746e-03, -1.57938179e-04, 1.98471406e-03, 1.51211862e-03,
       8.98599566e-04, 1.68659724e-03, -1.95659907e-03, -4.12169640e-04,
       -2.37461179e-03, 1.81562616e-04, 7.75501423e-04, 1.16244343e-03,
       2.99392414e-04, 7.02382531e-05, -2.07259459e-03, 2.44764640e-04,
       2.49815988e-03, -7.29903695e-04, -1.67415873e-03, 5.75102458e-04,
       3.78596567e-04, -2.78769265e-04, 1.06423907e-03, 3.89458670e-04,
       1.35533314e-03, 2.47600634e-04, -1.47431146e-03, -1.66804704e-03,
       -1.04606035e-03, 1.11540058e-03, 7.48316641e-04, -5.08338853e-04,
       1.06700556e-03, 4.40566661e-03, 4.97225148e-04, -2.81710876e-03,
       1.28738093e-03, 7.17858435e-04, -4.05918807e-04, -3.11078737e-04,
       -1.60884738e-04, 3.52835585e-03, 1.49606855e-03, 2.02023494e-03,
       8.31540907e-04, -2.50796811e-03, 2.29381956e-03, 3.55652213e-04,
       -1.22812379e-03, -4.78993868e-04, 1.29171895e-04, 3.82592971e-03,
       2.74027232e-03, 1.39258977e-03, 6.34756347e-04, 2.89695500e-03,
       -6.31432689e-04, -2.06818781e-03, -1.34597439e-03, 1.04548689e-03,
       2.10334361e-03, 3.12559481e-04, -6.58798905e-04, 1.44174241e-03,
       3.11929878e-04, -2.72552483e-04, -1.60658220e-03, -1.10665255e-03,
       1.02661888e-03, 3.39523453e-04, 4.80141694e-04, 9.05077031e-04,
       1.63699465e-03, 1.39952486e-03, 1.01637642e-03, 5.54015023e-05,
       -5.52103505e-04, -4.83669282e-04, 2.94888532e-03, 2.04843655e-03,
       -5.28450706e-04, 7.42236793e-04, 2.33366340e-03, -5.86209644e-04,
       -1.15681172e-03, -1.32593827e-03, -1.07618602e-04, 1.23856636e-03,
       1.90405955e-03, -1.24635093e-03, 5.99944789e-04, 2.87988805e-03,
       6.43399790e-06, -2.20368570e-03, -1.21328572e-03, -8.02035909e-04,
       7.28628191e-04, 6.01109874e-04, -1.26951502e-03, 2.21603992e-03,
       3.48410360e-03, 1.23519322e-03, 8.95239646e-04, 8.95946228e-04,
       -5.67832358e-05, 1.39266963e-03, 1.99217536e-03, -9.93185677e-04,
       1.15167291e-03, 7.03376281e-05, -9.62784456e-04, -1.55295292e-03,
       -5.26264012e-05, -3.94076778e-04, 1.96344359e-03, 1.30586699e-03,
       -3.33929271e-03, 2.02381192e-03, 1.82539877e-03, 5.86567621e-04,
       -1.42539875e-03, 1.49088528e-05, -1.70380954e-04, 2.94315559e-03,
       6.99240307e-04, -4.33615362e-03, 1.27492798e-03, 1.42634439e-03,
       -5.13513165e-04, -9.97587573e-04, -2.16451313e-04, 2.08127298e-04,
       1.99815282e-03, 2.54926854e-03, 1.78438611e-04, 8.40759676e-05,
       -8.32148711e-04, -1.62028102e-03, -1.44705130e-03,
       -6.96802686e-04, -9.44396190e-04, 3.02031077e-03, 9.87799373e-04,
       -1.15416478e-03, 4.77759429e-04, 2.32188933e-04, -8.35863233e-04,
       -2.35905196e-03, 3.08601266e-05, 2.37356219e-03, 3.50400596e-03,
       1.90564047e-03, -1.04234088e-03, 1.91304222e-04, 1.76678714e-03,
       -1.83943717e-03, -2.39772373e-03, -1.58760592e-03, 1.16258758e-04,
       4.22933232e-03, 6.35589240e-04, -8.25916475e-04, 9.08242015e-04,
       2.40538022e-04, -1.57608622e-04, -1.41290959e-03, -1.49588755e-04,
       3.26632732e-03, 1.43957243e-03, -1.97313610e-04, -5.44612878e-04,
       1.17636274e-03, -1.18561101e-03, -3.69703979e-04, -1.11344282e-03,
       7.70981016e-04, 2.14361120e-03, 7.75402179e-04, 3.11433047e-04,
       -3.11740761e-04, -1.15866470e-03, 3.35502205e-03, 9.14953765e-04,
       -9.32837778e-04, 9.89943859e-04, 2.54127337e-03, 2.29960331e-03,
       -1.80578398e-04, -1.24251167e-03, 6.05552807e-04, -1.54677487e-03,
       1.13907037e-03, 4.38567862e-04, 6.82452053e-04, 1.86989526e-03,
       1.37677568e-03, 1.15279993e-03, 3.09163297e-04, -1.43483665e-03,
       2.18627416e-03, 1.00380916e-03, -1.47876260e-03, -1.21550076e-03,
       4.45758051e-04, 9.67082451e-04, 4.79472190e-04, -1.31950015e-03,
       -1.37782062e-03, 2.34077708e-03, 1.13529782e-03, -6.27091853e-04,
       1.31772819e-03, 2.33374955e-03, -1.08008127e-04, 2.12484098e-04,
       -3.79140867e-04, 1.49419857e-05, -1.76520017e-03, -5.86488517e-04,
       -1.05192256e-03, 1.26197806e-03, 2.13328586e-03, 6.32367155e-04,
       1.27486128e-03, -1.83519107e-04, -1.04985584e-03, 5.85333852e-04,
       3.08086223e-04, -1.46835647e-03, -1.82591539e-04, 4.23494144e-04,
       1.59727747e-03, 7.85767683e-04, 1.00234989e-04, -1.90939245e-04,
       4.05996543e-04, -2.14406478e-04, -3.02105502e-04, 5.74294012e-04,
       1.89582631e-03, 2.78980791e-04, -2.80328182e-04, 7.37316441e-04,
       -3.90038709e-04, -8.74416844e-04, -1.56543846e-03,
       -1.21656677e-03, 4.20496886e-04, 1.80214259e-03, 1.84620766e-03,
       -5.50032186e-04, 2.53169186e-04, -7.42884586e-04, -4.61983902e-04,
       -2.27281358e-04, -2.71524279e-03, -4.88264574e-04, 3.08388192e-03,
       1.56191061e-03, -3.07849346e-04, 1.49819040e-04, -8.18889937e-04,
       3.33413505e-03, -5.44322829e-04, -1.24065380e-03, -9.65538435e-04,
       2.28580274e-03, 2.06503482e-03, -4.99931804e-04, 8.94524273e-04,
       -5.43162227e-04, -1.63463337e-04, 1.13089988e-03, -5.21505671e-03,
       -2.33489275e-03, 3.12365848e-03, 2.40733498e-03, -8.50793964e-04,
       1.50767490e-04, -5.25886833e-04, 1.94479211e-03, 3.19982646e-04,
       -3.76606872e-03, -1.37870084e-03, 3.89854726e-03, 2.65839230e-03,
       -5.75532962e-04, -5.05808741e-04, -1.06185779e-03, 2.00602063e-03,
       7.89861893e-04, -3.07050836e-03, -2.18766276e-03, 3.12953070e-03,
       1.28563121e-03, -8.77270824e-04, 1.11366692e-03, -7.84684671e-04,
       4.31568967e-03, 7.92592706e-04, -3.27775162e-03, -1.03850767e-03,
       3.15180654e-03, 6.66746055e-04, -1.25460909e-03, 5.84409630e-04,
       -3.48919712e-04, 3.73292691e-03, 4.57069546e-04, -3.84926470e-03,
       -2.21704761e-03, 3.63700115e-03, 1.81121926e-03, 2.03198128e-04,
       -3.57570039e-04, -6.98033429e-04, 3.19673610e-03, 1.66283106e-03,
       -1.43825263e-03, -1.66587578e-03, 2.98482762e-03, 1.37422886e-03,
       2.36660970e-04, 4.07339161e-04, -1.07109186e-03, 1.87979604e-03,
       2.94795289e-04, -2.62220320e-03, 1.90225801e-05, 3.59812472e-03,
       1.03453023e-03, -1.97699905e-04, -1.90918523e-04, -4.95751272e-04,
       4.53997962e-03, 5.23050781e-04, -3.34859383e-03, -1.16707431e-03,
       4.96269530e-03, 1.63216796e-03, 1.86963909e-04, -1.04634697e-03,
       -2.01186631e-03, 1.86282862e-03, -6.32913783e-04, -3.34928557e-03,
       1.46889640e-03, 5.58582088e-03, 3.10981588e-04, -5.18834859e-04,
       -8.17541440e-04, -2.13811849e-03, -5.38288150e-04,
       -1.28979841e-03, -1.26960338e-03, 8.69543175e-04, 2.05922476e-03,
       1.23124127e-03, -5.85883254e-06, -1.25446043e-03, -6.76002237e-05,
       2.24745437e-03, -1.31892494e-03, 2.63204420e-04, 9.38186015e-04,
       2.32563959e-03, 8.34430393e-04, -5.63942653e-04, -1.30889111e-03,
       -1.43692293e-03, -1.19834680e-04, -2.27028574e-03,
       -8.44696769e-04, 2.10569031e-03, 4.28518280e-03, 9.31635208e-04,
       -6.85526291e-04, -1.28815253e-03, 6.48850051e-04, 3.63452546e-03,
       -1.85988873e-04, 3.26455291e-03, 2.35419697e-03, 3.44445626e-03,
       1.25838866e-04, 2.60569388e-04, 7.67589605e-04, 7.91596714e-04,
       -4.23796155e-04, -2.33054467e-04, -4.60144001e-05, 4.56023554e-04,
       1.14577345e-03, -1.30886934e-03, -6.18635386e-04, 8.90911149e-04,
       8.91520467e-04, 2.68183765e-04, 3.24298395e-04, 1.31924043e-03,
       6.09517505e-04, 1.12452195e-04, 1.84060715e-04, -1.13300711e-03,
       -2.12515122e-03, -1.13417562e-04, 2.99490103e-03, 1.33884675e-03,
       5.21611376e-03, 2.73749162e-03, 2.68069329e-03, -1.12296944e-03,
       -1.51732203e-03, -2.52700876e-04, -2.39794521e-04, 1.54607813e-03,
       1.24522788e-03, 1.67584291e-03, 7.44877441e-04, 5.43707923e-04,
       -1.61637668e-03, -7.85710232e-04, -9.41673759e-04, 1.65225111e-03,
       2.02621985e-03, 4.08834807e-04, 1.64022169e-03, 8.23495153e-04,
       2.75744387e-04, 4.15861985e-04, -1.12215849e-03, -7.59342453e-04,
       2.19786493e-03, 2.97512719e-03, 1.78129543e-04, -5.06939716e-04,
       -1.89663901e-04, 1.54021219e-03, -7.93444517e-04, -5.77796192e-04,
       2.00883322e-03, 2.01577717e-03, 2.78085424e-03, 8.75684433e-04,
       -7.70896222e-05, 4.38420102e-04, 1.92830141e-03, 8.01588991e-04,
       -1.20957114e-03, 9.36144963e-04, 1.67149806e-03, 9.59765282e-04,
       3.71532915e-05, -5.72013028e-04, 9.87492269e-04, 2.60232808e-03,
       6.25004934e-04, -1.03004335e-03, -1.79601891e-03, -1.34568734e-04,
       -7.47512240e-05, -3.77505872e-04, -1.02964300e-03,
       -2.58399989e-04, 1.57844019e-03, 1.95054815e-03, -6.56862627e-04,
       -1.97959947e-03, 1.37743878e-03, 1.01394637e-03, 3.89741443e-04,
       -1.08696218e-03, 7.60285766e-04, 2.51821266e-03, 1.45104626e-04,
       -7.05826271e-04, -6.28680980e-04, -1.14142767e-03,
       -9.06629546e-04, -6.36548095e-04, 1.45146669e-05, 1.49531011e-03,
       1.72367354e-03, 9.13149270e-04, -7.06480525e-04, -4.73835884e-04,
       8.30879668e-04, 8.76387756e-04, -1.24744896e-03, -9.17460187e-04,
       1.67398539e-03, 1.83523330e-03, 4.37949493e-05, -9.84081533e-04,
       -9.45585372e-04, 2.31842510e-03, 3.24593112e-03, -9.56673874e-04,
       -1.51730911e-03, 1.12944015e-03, 5.24727744e-04, -1.26322312e-03,
       -7.80212751e-04, 4.53099288e-04, 9.82518191e-04, 1.29716902e-03,
       -1.80959853e-03, 1.64400693e-03, 1.87213498e-03, -8.09266407e-04,
       2.06238634e-04, -1.05353130e-03, -1.22407044e-03, 1.12466794e-03,
       1.13514531e-03, -1.96427293e-03, -3.40590836e-04, 2.16220017e-03,
       1.15696876e-03, -7.87397206e-04, -7.15467089e-04, -1.06117886e-03,
       -7.12185341e-04, -2.67941179e-03, -2.43734033e-03, 9.99060110e-04,
       1.95900002e-03, 2.79351545e-04, -1.32692454e-03, -1.03434129e-03,
       3.76535521e-04, 1.76564232e-03, 4.09566518e-03, -1.50870974e-03,
       9.91044100e-04, 1.36647117e-03, -4.54080524e-04, -2.35714880e-03,
       1.11423462e-04, 2.09441246e-03, 2.33683013e-03, 2.21340568e-03,
       -1.73209794e-03, -1.92775833e-03, 6.79187011e-04, -1.21780462e-03,
       -4.20873519e-04, -3.80651873e-05, 2.97970575e-04, 5.21714857e-04,
       1.20420323e-03, -1.03494513e-03, -6.24688284e-04, 1.32674736e-03,
       7.54060224e-04, -1.34375424e-03, -8.12045531e-04, 2.34012422e-03,
       1.78516912e-03, 5.30883577e-03, -2.70485063e-04, -1.29124281e-04,
       1.67979719e-03, 6.68847992e-04, -1.04696047e-03, 4.13986883e-04,
       1.95394130e-03, -9.09892726e-04, 1.27024902e-03, -1.87101669e-03,
       -3.79474997e-03, 7.28560728e-04, 4.93847801e-05, -3.75308700e-05,
       -1.33071828e-03, -6.22351014e-04, -2.87159378e-06, 2.33250624e-03,
       6.20508799e-04, -3.91622959e-03, 1.48854812e-03, 2.34913477e-03,
       7.55899964e-05, -1.38238922e-03, 1.83811830e-03, -1.03712955e-03,
       1.83834415e-03, -1.16598979e-03, -1.18061237e-03, 1.90082972e-03,
       2.35119159e-03, 1.08386949e-03, -2.15874729e-03, 5.67551993e-04,
       -4.25166218e-05, 3.00988718e-03, 1.38417550e-03, -2.39345641e-03,
       2.38876208e-03, 4.41381102e-03, -6.25141198e-04, -1.35516387e-03,
       -1.42916758e-03, 1.08918559e-03, 1.69530557e-03, 1.18589308e-03,
       -1.88099372e-03, 1.18229736e-03, 1.63385295e-03, -1.78500789e-03,
       -8.18361761e-04, -3.55436991e-04, 1.93472102e-03, 1.56889681e-03,
       8.07504519e-04, -1.68045494e-03, -9.15301847e-04, -1.41276093e-03,
       -3.31051124e-04, -2.50944449e-03, -2.09621014e-03, 4.47884173e-04,
       1.46453548e-03, 2.13147677e-03, 3.25336267e-04, 2.91044149e-03,
       2.05228128e-03, -7.34583708e-04, -4.40323318e-04, 3.16178222e-04,
       7.74560089e-04, 1.53785862e-03, 2.04139180e-03, -1.44785189e-03,
       8.68234551e-04, -2.54610117e-04, -1.19894126e-03, 1.15871022e-03,
       1.69839046e-03, 2.02236860e-03, 1.76658027e-03, 9.30670707e-04,
       -2.81686964e-03, -9.78341326e-04, -1.46507507e-03,
       -2.48792442e-03, 6.33353484e-04, 1.06291997e-03, 3.76112247e-03,
       1.33844465e-03, 1.08249026e-06, -3.07760458e-03, 1.44096717e-04,
       -1.97205320e-03, -1.25105114e-04, 1.93215825e-03, 1.91369792e-03,
       1.13623496e-03, -1.73489578e-04, 1.40604761e-03, -3.67167336e-03,
       -1.42477336e-03, -5.08430705e-04, -6.00167201e-04, 4.47150116e-04,
       -1.55010470e-03, 2.19708378e-03, -1.73162320e-03, 1.22848828e-03,
       -8.64199828e-04, -4.72385655e-05, -8.35707411e-04,
       -1.47700647e-03, -4.52258711e-04, -1.70742499e-03, 1.56678224e-03,
       4.03518090e-03, -6.08774601e-04, 1.89946251e-04, 1.70215720e-03,
       -3.64566658e-04, 1.73027313e-03, 5.49581368e-04, -3.24856862e-03,
       2.55089282e-04, 1.18324417e-03, 2.25335971e-04, -9.00974672e-04,
       1.04776316e-03, 2.08927668e-03, -3.58461024e-04, -1.81584299e-04,
       -1.93018722e-03, 6.10312505e-04, 1.47293357e-03, -1.72076907e-04,
       -8.76707316e-04, 5.12173341e-04, -2.17278866e-04, 2.83501064e-03,
       1.22488779e-03, -1.14913878e-03, 2.07065736e-04, 2.60926579e-04,
       9.74416733e-04, -1.03377679e-03, 2.02149065e-04, 2.34857667e-03,
       1.48544554e-04, 4.14123177e-04, -1.30226091e-03, 3.85095220e-04,
       -1.17937359e-03, 2.19908217e-03, -2.10708496e-03, -9.64443025e-04,
       3.29346280e-04, -4.44086595e-03, 2.80461344e-03, 4.02938761e-03,
       2.16580601e-03, 6.10985979e-03, 3.74297169e-03, 4.30070941e-04,
       1.63882156e-04, -4.89163492e-03, 1.61865028e-03, 1.62256719e-03,
       -5.90502350e-05, 8.95662466e-04, -3.82339465e-03, 1.84019934e-03,
       -5.19349589e-04, -8.25776253e-04, 7.32646557e-04, -2.70447996e-03,
       2.96919886e-03, 4.34389617e-03, 2.46608444e-03, 2.22255732e-03,
       3.04717035e-03, 3.53180594e-03, 1.15110271e-03, -3.56802600e-03,
       -2.44572689e-03, 1.81011518e-03, 2.69652042e-03, -1.31428277e-03,
       9.89774591e-04, -5.72872465e-04, 1.75643119e-03, 1.97009509e-03,
       -2.75581633e-03, 2.14022747e-03, 1.18591229e-03, -8.93642486e-04,
       -4.40374156e-03, -4.48710099e-03, -1.66590500e-03, 6.70467096e-04,
       2.46059732e-03, 2.60627759e-03, -5.02000097e-03, 2.25339131e-03,
       2.36918335e-03, -9.00869840e-04, 5.07475482e-03, 6.50540824e-05,
       4.75487392e-03, 1.20764819e-03, -5.07188449e-03, 8.13057850e-05,
       1.79225055e-03, -7.06278603e-04, -1.77625089e-03, -4.23086062e-03,
       -1.30130199e-03, 6.57817000e-04, -1.04507315e-04, -5.39737113e-04,
       8.21295660e-04, 4.93244035e-04, -3.14523437e-04, -2.28135032e-03,
       -1.02883624e-03, -8.33955710e-04, 8.29629251e-04, 2.31735478e-03,
       9.97606199e-04, -1.00348052e-03, -3.49763723e-04, 3.99472774e-04,
       -8.12464568e-04, 2.26952820e-04, -7.25946913e-04, -1.95505586e-03,
       2.34094347e-04, -1.15461415e-03, 8.83224071e-04, 8.44988739e-04,
       6.72484923e-04, -1.41623162e-03, -2.00180686e-03, -1.91514264e-03,
       2.30065663e-04, 1.72984175e-04, 4.65560472e-04, -1.77191477e-03,
       -1.12040807e-03, -1.60645647e-03, -1.37939258e-03,
       -3.14752199e-03, -2.09479430e-03, -2.67088064e-03,
       -2.79091386e-04, -1.49375387e-03, -9.85045801e-04,
       -5.42439637e-04, 7.89340527e-04, 4.94640321e-04, 2.03390559e-03,
       1.98459995e-04, -1.34801457e-03, -1.09839348e-04, -8.20683956e-04,
       -1.43115746e-03, -1.79188338e-03, -1.51682226e-03,
       -2.56307278e-04, -1.26329949e-04, 7.44256482e-04, 5.61473949e-04,
       1.04236568e-03, -1.26222774e-04, -2.54398584e-03, -4.49857238e-04,
       4.52014268e-04, 7.49860017e-04, -5.45840187e-04, 1.36625284e-04,
       -2.88107316e-03, -2.77795014e-04, -1.36798271e-03,
       -2.69913254e-03, -7.83465803e-04, 8.12743965e-05, 1.62582856e-03,
       -8.57548381e-04, 2.49013538e-04, -5.34975788e-06, 9.02046915e-04,
       -1.59945223e-03, -2.49264471e-04, -2.00673123e-03,
       -1.67341996e-03, -1.26016187e-03, -1.18016452e-03, 4.89600759e-04,
       2.39082309e-03, 1.03513896e-03, 1.28918875e-03, 1.80714868e-03,
       -5.67042385e-04, 2.14366359e-03, -1.06288050e-03, 6.15701836e-04,
       6.17751852e-04, 8.63068504e-04, -6.95503377e-06, 2.66871881e-03,
       -9.88471322e-04, -1.22211338e-03, -1.35268946e-03,
       -5.69497992e-04, -2.01142021e-03, 3.36261757e-04, 8.47616582e-04,
       1.46905848e-04, 1.13110225e-04, 1.89291692e-04, 1.60034484e-04,
       1.42978854e-03, -6.56166812e-04, 1.31418637e-03, 1.53739611e-03,
       -9.98966047e-04, -1.52897276e-03, 9.02446918e-04, 1.37963786e-03,
       -1.08698873e-06, 1.40458951e-03, -7.41556636e-04, 1.33132294e-03,
       7.92176579e-04, -1.46753242e-04, -1.54822192e-03, 8.67439725e-04,
       -2.26549990e-03, -9.88011132e-04, 6.09453011e-04, -1.74632668e-03,
       -2.38438530e-04, -2.01092422e-04, -2.22991453e-03,
       -3.25138937e-03, -2.38074805e-03, -2.24392614e-04,
       -2.62857240e-04, 1.83782203e-03, 2.31316866e-04, 1.42141990e-03,
       9.45333217e-04, -7.74555898e-04, -1.46942807e-03, 4.69992265e-05,
       -1.25295890e-03, -5.47651318e-04, 2.47595110e-03, -1.07144087e-03,
       2.04391172e-03, -1.12994842e-03, -9.68664710e-04, -2.31534801e-03,
       -8.18258908e-04, -2.06997525e-03, -5.20684698e-04, 6.82246056e-04,
       -6.08477239e-05, 7.23811798e-04, -4.29404550e-04, -2.14880961e-03,
       -1.78870873e-03, -1.85383402e-03, -6.63988234e-04, 9.51350958e-05,
       -1.20161501e-04, 4.19933291e-04, 1.61289389e-03, -2.31292244e-04,
       -2.60531623e-03, -2.24511488e-03, -1.05646974e-03,
       -7.58431444e-04, -1.60579410e-04, 1.85284542e-03, 1.39638985e-06,
       3.43009643e-03, -4.20740747e-04, -1.14002638e-03, -7.09094340e-04,
       4.02924838e-04, 6.02232816e-04, -6.45807537e-04, 1.96239143e-03,
       4.41777171e-04, 2.29683146e-03, -2.44093768e-04, -5.44969109e-04,
       -1.22721645e-03, 1.52555236e-03, -4.73891210e-04, 4.10438981e-04,
       -3.94568022e-04, -9.13753815e-04, -1.86363887e-03,
       -1.07860185e-04, -7.76374713e-04, -7.52331049e-04,
       -1.17892912e-03, -2.93558580e-04, 1.01173617e-04, -2.66269431e-04,
       -7.04754959e-04, -1.26370473e-03, 9.05893452e-04, -5.16792534e-06,
       6.49351277e-04, -4.30182525e-04, -8.08168028e-04, -1.21242122e-03,
       -6.95044801e-05, -7.70063954e-04, -3.76933982e-04,
       -7.96422886e-04, 1.93054834e-03, 4.52943437e-04, 1.23769001e-04,
       -3.27929360e-04, 1.20552315e-03, 3.07926792e-03, 3.67962697e-04,
       2.84378626e-03, -3.59561003e-04, 1.47849135e-03, 9.83664417e-04,
       4.09356318e-04, -9.34386509e-04, -8.67458701e-04, -1.27822382e-03,
       -7.63760647e-04, -7.26760074e-04, 2.04170487e-04, 1.34968047e-03,
       1.00777636e-03, -5.03984222e-04, -1.89490721e-03, -1.97566580e-03,
       -2.88637076e-03, -1.52029085e-03, -1.89596543e-03,
       -7.01442361e-04, 2.92895804e-03, 4.06750594e-04, -1.49125652e-03,
       -9.54263902e-04, 1.08776870e-03, 1.90564850e-03, 3.88697692e-04,
       2.22533173e-03, -9.09448601e-04, 7.07553292e-04, 2.36707987e-04,
       -3.76363256e-04, -6.71232294e-04, -9.47589811e-04,
       -2.66227662e-03, -2.30152858e-03, 6.47792185e-05, -2.20323820e-03,
       1.44773291e-03, 1.04906876e-03, -7.63332820e-04, -2.87710596e-03,
       -1.19871541e-03, -1.29049970e-03, -1.03507598e-03,
       -3.45479872e-04, 3.78357712e-04, 5.84115856e-04, 7.88818521e-04,
       -1.19615113e-03, -1.32691092e-03, 8.69378913e-04, -1.39183155e-03,
       -2.55937921e-03, 2.14574495e-04, -3.83972161e-04, -3.00491462e-04,
       1.08809292e-03, -1.07438071e-03, -1.00343209e-03, -2.54454702e-04,
       -1.54626265e-03, -9.48117697e-04, 9.04935645e-04, 6.37664401e-04,
       2.18564435e-03, 1.88022899e-03, 1.58593713e-04, -8.81300191e-04,
       1.33669353e-03, -3.56104225e-04, -7.16651150e-04, 1.51010128e-04,
       4.26028855e-04, -2.59400811e-04, -3.12470278e-04, -8.44921800e-04,
       -5.03325464e-05, 2.32294458e-03, -6.62645543e-05, -3.16345296e-03,
       7.94688647e-04, -1.91725616e-04, -1.95411011e-03, -5.39567205e-04,
       -1.01711904e-03, 2.63255741e-03, 3.57851526e-03, 4.71547799e-04,
       -1.55464874e-03, 1.03724701e-03, -1.27533753e-03, -7.97749730e-04,
       -1.22766034e-03, -1.29155105e-03, -6.79106917e-04, 1.67397421e-03,
       -4.58653958e-04, -2.02976656e-03, 1.21743054e-04, -5.36824518e-04,
       -3.73735355e-04, 2.03891268e-05, -1.17176177e-03, 9.30765294e-04,
       3.29220551e-03, -3.55398399e-04, -1.56808761e-03, -1.32019026e-03,
       -1.96673954e-03, -7.44174933e-04, 2.56160652e-04, -1.21920952e-03,
       3.26100434e-03, 3.78329144e-03, -3.07085225e-04, -1.45948643e-03,
       1.80808944e-03, -1.57784007e-03, 5.19344176e-04, -4.91401996e-04,
       -7.22212135e-04, 3.90595233e-04, 3.11765634e-03, -7.80347793e-04,
       -4.99354850e-04, 9.21478320e-04, -6.56921882e-04, -7.63727119e-04,
       -2.86882045e-04, -1.83001335e-03, 1.68483180e-03, 3.32412566e-03,
       -7.50725972e-04, -1.48200418e-03, -2.48929067e-03,
       -1.37123174e-03, -1.10560248e-03, -1.38348216e-04,
       -1.26399379e-03, -3.74268770e-04, 1.18730008e-03, -2.57366197e-03,
       -8.59474647e-04, -3.07029695e-03, 6.07458816e-04, -6.60959515e-04,
       -4.57100658e-04, -2.43917527e-03, 2.25652111e-04, 2.43155751e-03,
       -1.71518582e-03, 4.05234256e-04, 1.70530286e-03, -4.19917596e-05,
       -7.39493931e-04, 2.06415512e-04, -1.94058160e-03, 8.24103947e-04,
       2.09005387e-03, -2.55786744e-03, 3.94116039e-04, 3.37323267e-03,
       -6.11264550e-04, -5.72601450e-04, -2.10965227e-04,
       -1.03427819e-03, -1.05417636e-03, 5.11490274e-04, -3.34041147e-03,
       -8.45116971e-04, 9.38051962e-04, 1.78199296e-03, 4.95066168e-04,
       1.89364699e-04, -2.96024373e-03, -1.46439602e-03, 2.13208928e-04,
       -2.28319224e-03, -3.59823287e-04, 1.74019998e-03, 1.76594607e-04,
       -2.42889160e-03, -1.33501797e-03, -2.65747844e-03, 7.30350264e-04,
       1.21220970e-03, -1.62195950e-03, -4.88569669e-04, 2.14529410e-03,
       -7.99064816e-04, -1.45795709e-03, -1.47497619e-03,
       -1.62986026e-03, 1.72620581e-03, 9.40372644e-04, -1.13203318e-03,
       3.61162587e-04, 1.14921271e-03, 4.97380388e-04, 9.76049632e-04,
       -1.63447767e-04, 1.02028123e-03, -5.86228212e-04, 1.05705264e-03,
       -1.25275075e-03, -1.15786260e-03, 1.75918569e-03, -3.40415922e-04,
       -3.37745849e-04, -1.49268087e-03, -1.04397023e-03, 5.92551078e-04,
       1.41563104e-03, -1.46511628e-03, 6.11235271e-04, 2.27683526e-03,
       1.81712420e-03, 1.57111778e-03, -3.68056179e-04, 2.22561532e-04,
       1.83430116e-03, 1.27691965e-04, -1.13738852e-03, 4.94490552e-04,
       -1.89644226e-04, 1.20794051e-03, 1.01454509e-03, -4.13222588e-04,
       1.47279003e-03, 1.88517408e-03, 4.67375776e-06, -7.95942964e-04,
       -1.55758066e-03, 1.04172924e-03, 3.59446676e-05, -1.05599128e-03,
       -1.61918940e-03, 1.51393644e-03, 1.14054850e-03, 7.56872119e-04,
       -1.55559485e-03, 9.09834169e-04, 8.81114451e-04, 1.52773631e-03,
       6.20082661e-04, -1.62545359e-04, 9.90635133e-04, 3.57324025e-04,
       -9.62477352e-04, -2.69981148e-03, -1.29922340e-03,
       -3.78449040e-04, -9.79330274e-04, -5.70871169e-04,
       -3.31463816e-04, 9.44940315e-04, 1.25040568e-03, 5.57327330e-05,
       -4.77078982e-04, -5.77008876e-04, -3.67006927e-04,
       -1.04442646e-04, -8.99725826e-04, -3.48037545e-04, 1.22866326e-03,
       1.40261510e-03, 4.03584447e-04, -2.52184342e-04, -5.68712130e-04,
       1.14922354e-03, -5.63237059e-04, 5.36628104e-05, 9.37752367e-04,
       2.12200405e-03, 9.30316583e-06, 1.32970497e-04, -5.48548414e-04,
       3.92243412e-04, -8.42936628e-04, -1.75899884e-04, -6.23753702e-04,
       -4.66808357e-04, -3.56490091e-05, 1.35277456e-03, 1.23530230e-03,
       3.07194097e-03, 4.16099319e-05, 1.23750919e-03, -1.18295109e-04,
       -2.42348062e-03, -1.24335149e-03, 6.11104188e-04, 8.13168124e-04,
       -1.33972464e-03, -1.68943161e-03, -1.61388679e-03, 2.72429944e-03,
       -5.87117218e-04, -3.56329884e-03, -8.96094309e-04, 1.94222305e-03,
       1.12958986e-03, -1.66556030e-03, -1.92967127e-03, -1.57055259e-03,
       -8.88003677e-04, 9.35887976e-04, -3.55022680e-03, -4.51050641e-04,
       1.39844604e-03, 1.39484787e-03, -4.40222357e-04, -1.64694051e-04,
       -1.17449416e-03, 3.11666238e-03, -4.04884893e-04, -2.67687836e-03,
       -2.12278171e-03, 1.48909003e-03, 6.43313571e-04, -1.07691437e-03,
       -1.47889473e-03, -9.83175778e-05, 1.04139908e-03, 1.02804892e-03,
       -1.69469661e-03, 1.60914077e-03, 2.28896388e-03, 8.99388804e-04,
       -6.60396472e-04, 1.15596806e-04, -1.41862873e-03, 2.26328522e-03,
       3.93470138e-04, -2.15701619e-03, 6.60589954e-04, 2.39555771e-03,
       -1.59483473e-03, -1.54104130e-03, 4.36175251e-05, -1.31895824e-03,
       1.77800586e-03, 5.40989604e-05, -3.90550098e-03, -3.18291917e-04,
       1.63805031e-03, 2.11019942e-04, -2.13864696e-04, 4.02532460e-04,
       -5.79726766e-04, 2.71524047e-03, 6.41619030e-04, -1.72297820e-03,
       2.39296746e-03, 2.96761212e-03, 4.18648473e-04, -2.10321276e-04,
       5.06517245e-04, -2.53648916e-03, 7.22686935e-04, -2.51035672e-04,
       -2.91977939e-03, 8.19956535e-04, 2.64723063e-03, -2.62025953e-03,
       -1.42731948e-03, -1.99036891e-04, -3.79656849e-04, 3.11581767e-03,
       8.53508827e-05, -3.08944029e-03, 7.22209748e-04, 2.29059672e-03,
       -1.63722993e-03, -4.70297993e-04, -1.41409296e-03,
       -1.39663287e-03, 1.45551120e-03, -8.35646177e-04, -2.38344260e-03,
       1.48087274e-03, 1.52693572e-03, 5.92616016e-06, 5.05331409e-05,
       1.15998124e-03, -1.11650093e-03, 2.34155194e-03, 1.03725388e-03,
       4.58415656e-04, 9.24621650e-04, 2.65828567e-03, -7.52099673e-04,
       1.16518629e-03, 7.50272768e-04, -1.65089004e-04, 7.67619058e-04,
       -5.58031024e-04, 5.52876969e-04, 9.66510270e-04, 1.16826815e-03,
       -1.31383759e-03, -8.97495018e-04, -2.46384693e-03,
       -1.56933034e-03, -6.72318740e-04, -1.35571486e-03,
       -1.12356339e-03, 1.57564331e-03, 2.95177422e-04, -1.38010757e-04,
       -1.31199299e-03, -2.04802724e-03, -9.43839550e-04, 2.87148869e-03,
       1.16505304e-04, 4.13568271e-03, 2.49052094e-03, 1.06080377e-03,
       -1.78095012e-03, 5.95251622e-04, -7.24946498e-04, -1.86887756e-03,
       6.68574066e-04, -1.37459347e-03, -3.76926153e-04, -7.83632451e-04,
       -8.73581448e-04, -5.27946650e-05, -2.45622388e-04,
       -5.45927360e-05, -2.37196614e-03, 5.27998200e-03, 5.00822753e-05,
       1.91042200e-03, 4.87999612e-04, 5.34276827e-04, -1.83495996e-03,
       -1.33480784e-03, -1.56552147e-03, -1.58797670e-03, 7.99627858e-04,
       1.52086292e-03, 4.23840294e-03, 2.30147480e-03, -5.10138518e-04,
       -1.57336821e-03, -1.06498750e-03, 6.63766928e-04, -9.52285540e-04,
       7.51009793e-05, 1.37754227e-03, 1.91371271e-03, 1.04261353e-03,
       -7.76960860e-06, -3.30759212e-05, -3.67898319e-04, 1.89350088e-04,
       -2.61309044e-03, 2.10014987e-03, 1.17958384e-03, -2.68978212e-04,
       2.33801504e-04, 5.80562511e-04, 1.68176705e-03, -4.33667956e-05,
       2.49761419e-04, -1.98410451e-03, 6.46343979e-04, 7.60590774e-04,
       -9.86853847e-04, 8.68282397e-04, 2.56842002e-03, -5.03736490e-04,
       1.83113661e-04, 3.80133046e-03, 1.25661609e-03, 1.05870178e-03,
       2.53747363e-04, 8.36381398e-04, 7.48034625e-04, 9.65684245e-04,
       -6.72169204e-04, -1.38473022e-03, 1.68729003e-03, 2.33648447e-04,
       1.42364792e-04, -2.35135507e-04, 2.69141601e-04, 9.90189495e-04,
       8.27697862e-04, 2.14378699e-03, -1.71811535e-05, 3.35455552e-04,
       3.52811912e-04, 2.20936164e-03, -7.36673028e-05, 1.07311923e-03,
       2.01321766e-03, 2.54964153e-03, 2.01945237e-04, 6.38324942e-04,
       1.43691606e-04, -3.71589413e-04, 6.13784185e-04, -9.06310801e-04,
       -2.51214742e-03, 6.95619849e-04, 9.58096352e-04, -1.28628826e-03,
       -9.04524233e-04, -3.34750745e-04, -1.75100239e-03,
       -1.70444360e-03, -1.49954052e-03, 1.19452539e-03, 1.70606642e-03,
       2.96262937e-04, -7.62082520e-04, -8.24436138e-04, -1.37865674e-04,
       -5.31989972e-05, 4.48690727e-04, -2.31336104e-03, 1.66898756e-03,
       2.70136353e-03, 5.86947426e-04, -1.30232016e-03, -1.15838347e-05,
       -2.16616294e-03, -1.66023243e-03, -2.75146263e-03,
       -2.32630828e-03, -2.94264639e-04, 3.18858563e-03, 6.24018605e-04,
       -1.42354029e-03, -5.64724265e-04, -1.50579168e-03,
       -7.24331592e-04, 1.05207087e-03, -2.24474492e-03, 9.88281798e-04,
       3.69470706e-03, 1.09024008e-03, -1.00712036e-03, -6.82607875e-04,
       -2.23077863e-04, -1.60347292e-04, 8.39895336e-04, -2.32195808e-03,
       7.99163827e-04, 2.62925797e-03, 3.51230032e-04, -5.72240504e-04,
       -1.09773164e-03, -8.15795735e-04, -1.41379621e-03,
       -1.44597632e-03, -2.67311558e-03, -5.31600555e-04, 4.19254007e-04,
       1.13808688e-04, -1.56069826e-03, -7.47339742e-04, -2.91224977e-04,
       -1.08736544e-03, 1.31066958e-03, -1.16674509e-03, 1.56749249e-03,
       3.60439648e-03, 1.11629185e-03, -1.42238312e-03, -2.68131890e-03,
       -2.34345626e-03, -1.30885385e-03, 1.62832194e-03, -1.71962287e-03,
       -4.06910782e-04, 2.86398688e-04, -1.27143270e-04, -8.02134746e-04,
       -3.63850500e-04, 3.34491138e-04, -1.81800628e-04, -8.13391292e-04,
       -9.83062200e-04, -1.64697692e-03, 1.34030386e-04, 1.71814463e-04,
       -3.21355392e-03, -1.45198486e-03, 1.36857294e-03, 2.40651448e-03,
       1.78878917e-03, 8.02273629e-04, 4.16778697e-04, 8.26231728e-04,
       -1.15986541e-03, -7.35566486e-04, -8.52179830e-04,
       -4.20248252e-04, 7.42731383e-04, 1.49193732e-03, -3.25913308e-04,
       -2.31910555e-04, 4.65109275e-04, 1.23835080e-05, -2.39450927e-03,
       -1.08042150e-03, 1.75520126e-03, 4.02759248e-03, -2.31826154e-04,
       7.23133737e-04, -1.04837806e-03, 1.45523762e-03, -2.55999243e-04,
       -2.43514660e-03, -2.46821879e-03, 1.28855856e-04, -1.75000838e-04,
       -3.77794961e-04, -1.04363433e-04, 6.39467733e-04, 1.33873487e-03,
       -1.89658211e-04, -1.04491739e-03, -2.00545415e-03,
       -7.49190571e-04, -1.65392784e-03, -1.45544100e-03, 3.17602477e-04,
       -7.45197642e-04, 2.01776251e-03, 7.57716713e-04, -1.64316292e-03,
       -2.62771244e-03, -6.56584569e-04, 1.00005127e-03, -4.67492646e-04,
       4.22987854e-04, 1.45180081e-03, 2.54797447e-03, 8.56302504e-04,
       -9.61259066e-04, -2.30274023e-03, -1.96103915e-03, 2.95247417e-04,
       -1.94214750e-04, 1.89584331e-04, 2.14859276e-04, 3.03739542e-03,
       1.19462202e-03, -9.97283147e-04, -1.28045341e-03, -1.25512027e-03,
       -9.05323192e-04, -1.30805583e-03, 4.81918367e-04, 5.58749714e-04,
       2.34846608e-03, -1.50168980e-05, -5.72248420e-04, -2.14820699e-04,
       1.25009846e-03, -6.66591339e-04, 4.18454554e-04, 7.06956955e-04,
       -1.38316839e-03, 1.13940705e-03, -2.79896212e-05, -3.59477621e-04,
       -5.38664404e-04, 7.37121591e-05, 5.17000328e-04, -2.63359107e-04,
       -1.14683574e-03, -1.74124911e-03, 1.27521530e-03, 6.01031585e-04,
       -1.75928674e-03, -9.95031791e-04, 1.76616979e-03, -2.28646430e-04,
       -2.17066566e-03, -8.77044862e-04, -3.24153807e-03,
       -4.50190964e-05, -5.42058260e-04, -4.00458986e-04, 1.38515222e-03,
       2.39853049e-03, 5.35691797e-04, -2.42509283e-04, 1.42752589e-03,
       -1.31882739e-03, -6.55476470e-04, -5.77382336e-04, 8.53962498e-04,
       3.85511812e-04, 3.35420802e-04, 1.22987397e-03, -2.14895088e-04,
       1.46980025e-03, 2.85171627e-05, -1.04255951e-03, -1.47387938e-04,
       -1.90457876e-03, -5.28564095e-04, 1.73878565e-03, 9.88323125e-04,
       -1.78727030e-03, 5.28439996e-04, -2.25498210e-04, 5.49379365e-05,
       -1.02522550e-03, -2.48299213e-03, -1.01962418e-03, 5.57396270e-05,
       1.10247906e-03, -1.56928226e-03, 2.74514518e-04, -1.03160425e-03,
       3.45345870e-05, -1.51327881e-03, 8.44522321e-04, -7.13251589e-04,
       -1.54053967e-03, -5.83708519e-04, 1.29294419e-03, 1.36368879e-04,
       -1.21420169e-04, -2.10960905e-04, 3.80589569e-04, 2.63051246e-03,
       3.65886284e-04, -2.22509168e-03, -1.93862279e-03, 6.70788286e-04,
       6.34352327e-04, -9.46040323e-04, -5.24955802e-04, 2.11094390e-03,
       -4.33603767e-04, -1.21651054e-03, -8.70288350e-04,
       -9.16773046e-04, -2.25513382e-03, 6.60139776e-04, -9.07251597e-05,
       2.51547317e-04, 1.04755664e-03, 2.85671349e-03, 1.43473386e-04,
       -3.78609030e-03, -2.37154053e-03, -3.14894505e-03, 1.69440662e-03,
       1.66277622e-03, 1.95872458e-03, 3.32486909e-03, 1.79234939e-03,
       1.18662673e-03, -8.41218221e-04, -1.09487178e-03, -4.06998675e-03,
       8.17700638e-04, 4.62552998e-04, -1.85559838e-05, 1.01942837e-03,
       -2.49084947e-03, 2.44248030e-03, 3.87796224e-03, 1.34189695e-03,
       2.60924967e-03, 1.56405382e-03, 3.79288988e-03, 1.44723791e-03,
       -3.08114802e-03, 9.00369312e-04, 1.66500523e-03, -1.86096563e-03,
       -1.89473911e-03, -5.10641886e-03, 7.68765924e-04, -1.03679071e-04,
       3.52496427e-04, 7.03078462e-04, -3.71620292e-03, 4.37533949e-03,
       4.88559110e-03, 2.70780828e-03, 4.53415327e-03, 8.29191296e-04,
       3.27639841e-03, 2.00976222e-03, -4.20892145e-03, -4.26266063e-03,
       2.13949056e-03, 3.69125541e-04, 2.70443677e-04, 5.05573489e-03,
       7.76008586e-04, 4.33154497e-03, 1.13859086e-03, -5.00924001e-03,
       1.04999484e-03, 1.70701754e-03, -7.07909639e-04, -2.99908948e-04,
       -1.82863162e-03, -3.55839031e-04, 8.99283099e-04, -1.78260001e-04,
       6.81699021e-04, -5.30127902e-03, 3.63758678e-04, -2.96763168e-03,
       1.03167375e-03, 3.92437307e-03, 2.22109212e-03, 2.44271639e-03,
       1.26598030e-03, -5.39478380e-03, 4.04588005e-04, -8.71673401e-04,
       -4.95905103e-03, 1.07042864e-03, -5.34420647e-03, 2.46248441e-04,
       -1.74446532e-03, -4.33323497e-04, 9.76819661e-04, 1.38556212e-03,
       1.21520134e-03, 2.15793587e-03, -1.26749830e-04, -1.37707451e-03,
       -1.33210572e-03, -5.50377532e-04, -3.54721502e-04, 1.71602378e-03,
       1.33414316e-04, -1.58136257e-03, -1.82463450e-03, 3.75668169e-04,
       -2.93372688e-03, -1.81944016e-03, -3.44186230e-03,
       -5.86192298e-04, 1.08203990e-03, 1.28971157e-03, -6.06373032e-06,
       -1.29370461e-03, 2.36044725e-04, -5.47765801e-03, -1.23873574e-03,
       1.88865582e-04, 1.00065174e-03, 2.16302881e-03, 1.22533040e-03,
       -9.01239517e-04, -2.22350820e-03, 5.22848452e-04, -3.79942823e-03,
       -2.80008465e-03, -1.00520405e-03, 3.60790378e-04, 1.95736694e-03,
       -6.46041415e-04, -1.56046567e-03, -1.25933671e-03, 1.00877823e-03,
       -1.59288931e-04, -4.53073444e-04, -3.14810593e-03,
       -5.75582904e-04, -2.37233035e-05, -1.20856485e-03,
       -9.03926906e-04, -1.10923150e-03, 1.50721055e-03, 4.30566542e-05,
       -7.41108204e-04, -1.88798911e-03, -1.67163031e-04,
       -7.20456184e-04, 1.20410754e-03, -1.39951194e-03, -1.88054505e-03,
       1.71948364e-03, -5.14592510e-04, -1.56669295e-03, -1.38972560e-03,
       -6.44275933e-05, 1.18086964e-03, -4.99692513e-04, -1.20672490e-03,
       -4.43566154e-04, 1.29159505e-03, -1.04795897e-03, -5.72158722e-04,
       -3.14794481e-04, 3.16990423e-04, -2.86614784e-04, -8.33366066e-04,
       -9.18949081e-04, -5.01415168e-04, -5.57964086e-04,
       -1.24168629e-03, -8.86947091e-05, 4.30418848e-04, 4.76835849e-04,
       6.18176011e-04, -8.84481531e-04, 7.37376977e-04, 4.36895585e-04,
       -6.22338965e-04, 2.89713079e-03, 2.01794412e-03, -1.19445731e-05,
       -5.92808530e-04, -4.82704218e-06, -9.24355467e-04,
       -6.17971702e-04, 1.06578262e-03, -3.68289766e-05, -3.06397770e-03,
       -3.44902481e-04, 2.52822065e-04, 1.28895324e-03, 8.11319565e-04,
       -2.50231969e-04, 1.12249155e-03, 1.55744562e-03, 9.43048450e-04,
       2.26173084e-03, 1.98660721e-03, 1.01024436e-03, 3.72805749e-04,
       9.26706183e-04, -1.42731250e-03, 1.08400418e-03, 1.87930535e-03,
       -5.10489335e-04, 1.25591352e-04, 1.04609621e-03, 1.57697759e-05,
       -6.09319075e-04, -3.77447810e-04, -2.30378262e-03,
       -3.73740040e-04, 2.26540794e-03, -6.45458931e-04, 5.14082712e-05,
       -7.26294646e-04, -5.37067070e-04, -1.16019056e-03,
       -3.74514551e-04, -8.73483150e-05, 1.15920149e-03, 1.38279446e-03,
       -5.04718686e-04, 9.26669454e-04, 1.30780414e-03, 1.61345350e-03,
       9.47234221e-04, 5.71186072e-04, -9.37318429e-04, 8.09669145e-04,
       3.30118183e-03, -9.39472695e-04, 8.50491633e-05, -7.72203202e-04,
       -2.20534494e-05, -4.39189200e-04, -3.57448007e-05,
       -1.27756747e-03, -1.50958964e-04, 7.33830791e-04, -7.79706243e-05,
       1.20920350e-03, -8.18311019e-05, -1.49777145e-04, 1.20360419e-05,
       8.73050594e-04, 4.21588134e-04, -7.79468173e-05, 3.81413673e-04,
       2.66464427e-04, 8.64110014e-04, 1.48764011e-04, -1.20066492e-04,
       -1.33958602e-05, 1.87317363e-03, -8.10031372e-04, 6.56689575e-04,
       1.09995133e-03, 1.99425540e-05, -1.70606060e-03, 5.70707089e-05,
       6.21196814e-04, 1.31228779e-04, 4.24249709e-04, 1.02520105e-03,
       1.10468757e-03, 1.48305960e-03, 1.23079482e-03, 1.01130758e-03,
       8.95705132e-04, 2.96784402e-03, 1.44562381e-03, 2.27131741e-03,
       8.37795145e-04, -1.23030099e-03, -3.47792316e-04, -8.32580554e-04,
       -8.76394100e-04, -6.99445372e-04, 2.13903631e-03, 1.28980738e-03,
       2.46752542e-03, 1.45494274e-03, 1.98638838e-04, 2.68813362e-03,
       -7.00348610e-05, 1.00695936e-03, -1.35924295e-03, 1.63058095e-04,
       6.90329121e-04, 2.37895758e-03, 3.89774708e-04, -6.08571630e-04,
       -7.32991088e-04, -5.82410648e-05, -2.32091080e-03,
       -4.95348999e-04, 2.44586705e-03, 8.72474571e-04, 2.55341665e-03,
       1.33746234e-03, 2.80238758e-03, 4.31370502e-03, 1.06881151e-03,
